-1.307095784054076226e+00 -1.816607766787013301e+00 -2.110124090715706391e+00 1.148703058916072384e-01 -8.845647260649404375e-02 1.858013919690049587e+00 -1.164834427734797062e+00 -3.012427605212943948e+00 -2.828392668347456507e+00 -1.860894018525110827e+00 3.133608798202434931e-02 -7.092483861958532865e-01 8.245847727164310470e-01 5.557929882066435789e-01 -9.274897970961778482e-01 1.088228454839254900e+00 1.838678188459358820e+00 5.534910060569727674e-01 -2.916461701152384123e+00 1.249068201767095099e+00 -4.276825115294988766e-01 -2.155707471981292311e+00 -1.690234613735645264e-01 7.524728206779932593e-01 -3.343720161034300364e-01 2.998154362345100132e-01 -1.392654159924714863e+00 -2.689367441803360848e+00 1.993570654700055900e-01 2.417391877246590326e+00 -1.404260152790464122e+00 -8.157751869119919674e-02 1.077766235568029085e+00 9.845248877329612069e-01 2.421689712988678966e+00 2.160701255821363187e+00 1.620837224994642611e-01 -9.644395500084803619e-01 -1.132033753807366316e-01 -1.338218870042204633e+00 -2.884765895143277525e+00 -1.919408466180615724e-01 -5.935135499559327510e-01 -5.349943144070880459e-03 -5.041226851268482134e-01 7.072728920677982811e-02 3.223040015921354584e-01 4.046339983303693932e-01 2.199286931775193410e-01 -1.602564479640947170e-01 -1.487808353163844632e+00 7.775613072389461200e-01 -1.070902467811633896e+00 7.884466884536652787e-01 -2.601201717355560716e-01 8.637921644023854872e-01 -2.182309474351586509e+00 9.636386214621411872e-01 1.879014076958563095e-01 5.786175017776593599e-01 -2.069195340022213170e+00 -1.953571499710986759e+00 5.958192797196408819e-01 2.605668413990558721e-02 -1.603653649157926298e+00 3.941514262419930636e-01 2.367251045326018155e-01 8.069517344970249251e-02 6.974534501747079451e-01 -1.117998301532696193e+00 -8.302013860649194443e-01 1.486520951753143915e+00 6.140365254407512685e-01 4.384068198231949598e-03 6.993401951607831381e-03 -8.037464458712533233e-01 1.265070629229233745e+00 1.712342307111639483e+00 -1.677918176988108634e+00 1.291726813724113077e-01 -7.720187470275582386e-01 -1.842152476038220632e+00 -7.225352869758715491e-01 6.749017821597587119e-01 8.501119502856144816e-01 1.017511561322698377e+00 9.904687084401480046e-01 -1.764704156548672076e+00 3.461324743670769477e-01 5.218358892204647548e-01 -2.186086192631503167e+00 6.589535140089836096e-01 9.518212348361471120e-02 -1.579633071068112571e+00 -6.405865581853006363e-01 -6.003101770371134516e-02 -1.733504113610665476e+00 7.631204644137651316e-01 2.779980282681073223e-01 1.494500342362403256e+00 1.085768958456678757e+00 1.794167224563868457e+00 -5.952956290221705915e-01 -7.775878037223290518e-01 8.943620540541596942e-01 -1.366859173175781761e-01 -1.504034426489157195e+00 6.936035978241575362e-02 -2.193218072634119109e-01 1.027279505924075576e+00 6.502307620113798592e-01 -6.256550793242412478e-01 -1.285594516170389223e+00 2.109019454040013675e-01 -3.872759748337889496e-01 -6.006918390360014293e-01 -4.285697530115892967e-02 -5.349962543503260400e-03 -6.115413648115437528e-01 -5.733004199917755006e-01 -1.589795391903532640e-01 -6.067704049453628290e-01 5.669600372705841940e-01 -1.968316412260502357e+00 -6.230096877049100534e-01 -7.913792595951473219e-01 -1.461196001697233626e+00 -5.625193292807432188e-01 -2.464864134666506779e+00 2.955822721859380775e-01 -3.520213932292191039e-01 -2.469687341471219710e+00 -1.372090921004100572e+00 -2.010230268777552232e-01 -8.549298839164007902e-01 1.950107217693276773e+00 1.171558797541626840e+00 -6.576546610015153727e-01 -1.690182755167900064e+00 -1.920671788846658012e+00
-9.110733814068042724e-01 1.131946553401106809e-01 -1.675688534372289304e-03 5.533214363342239261e-01 2.445408277056179344e-02 -1.752060966788709262e+00 -1.562122522113649437e+00 -2.106222328324715232e+00 -1.216151241458898413e+00 -2.467061340626619970e+00 -4.607202940624263721e-01 4.086399534417742285e-02 -1.352779960968692352e+00 -6.113649457098618845e-01 -1.368673479280123860e-02 7.374895378026513626e-01 7.842532068042090687e-01 -2.232119868476111213e-01 -1.154021353752824997e+00 1.111652886816752339e+00 -1.100995310585083597e+00 3.312999588714659049e-01 2.821923517776043708e-02 7.913961437117181807e-01 1.181183741069218751e+00 -9.597851199481731710e-01 -8.357516352792155878e-01 2.231511380556389756e+00 -1.263377417483153020e-01 -1.168439094662515387e+00 -2.374770881576125703e+00 -6.561248774996049082e-01 -1.139651944749067614e+00 -1.059582028422588973e+00 5.929457357713359134e-01 -3.316949716337286858e-01 -1.586450641943947693e+00 8.357794237535265403e-01 -5.570419488266342700e-01 9.004699234371357219e-01 8.974380678877166284e-01 4.405133341792730750e-01 -1.380796364901365925e+00 -2.178397914334129659e+00 -7.981321948796161747e-01 2.622305507635631083e-01 1.524065359541589837e+00 1.733201933164649544e+00 8.143042249224921036e-01 -1.540623695123723325e+00 6.617996504362896326e-01 -2.127121861461223062e+00 2.650482705231117508e-01 1.012738338827715356e+00 1.070527887056067051e+00 2.714170187971828518e+00 -4.382299240320806089e-01 -1.862215995345729846e-01 -8.976980776934926354e-01 1.311837415423827147e-01 -4.941530551250054581e-01 7.801141305238982193e-01 1.274676806292323272e+00 -1.186448063774697692e+00 1.270841645361266536e+00 1.430615199205720778e+00 2.045271884498714096e-02 3.194843770358600232e-01 -1.744133028334012847e+00 -1.851950824431025655e+00 -1.180038039328134669e+00 2.697873946332027817e-01 2.001711055529529527e-03 3.277755239908163309e-01 -8.115566898243880001e-01 -1.099552183085188650e+00 8.495919700086441706e-01 3.526699964940948284e+00 -2.006464048748482387e+00 1.061809801982941948e-01 -3.828667042642076076e-03 9.416488088792391853e-01 -1.820284780202599817e-01 -1.540876839009142740e+00 -1.589441768748386608e+00 6.171783952523567374e-01 1.078665544770513129e+00 -1.404997104403222341e+00 5.127974216732705814e-01 -7.644216462345081453e-01 -1.598812303245401134e+00 1.071612198129780591e+00 -9.887523411467694645e-01 4.115097361133622789e-01 -3.576034674324750640e-01 -2.934666019483577193e-01 -5.741665231308924477e-01 -1.913176130905134942e+00 -6.654545200987627140e-01 2.263915662443909849e+00 9.036850690605634506e-01 -1.180711067670320968e+00 -6.586593734804396805e-01 -6.880663687190721189e-01 -6.267527047939995821e-01 -2.221218154590688165e+00 -9.113810626028944206e-01 -2.149904114218325057e-01 -8.978726873182872881e-01 1.093918877425496650e+00 -4.073006250949144369e-01 8.016723599465066519e-01 -2.551904605169085793e-01 6.215149273805539165e-01 -2.404004647649303994e+00 1.792726990251201968e+00 -1.954080780014915697e-01 -7.118418126447176864e-01 -1.886199743452753319e+00 -6.442641552733224808e-01 -1.543343417749803437e-01 1.562312533597179087e-01 -1.806101678867836346e+00 -3.322748773594156990e+00 1.556307599241608663e-01 8.287913464850882664e-03 -7.494867987981363999e-01 1.090152745147863866e+00 1.850322435806421861e+00 -5.259927865553251092e-01 -7.524547647436432563e-01 2.591677203178286981e-01 -5.532423141976201553e-01 6.997343328692332554e-01 1.800838085990240423e+00 3.581479139286853353e-01 1.096991641829134778e+00 -1.820517024811614815e-01 -5.600515523164621978e-01 -3.056403076147055753e+00
-1.152489872707530560e+00 -6.436274642883833552e-01 -2.115254783371500302e+00 1.179579205101871864e+00 8.854293049177511810e-01 -1.233147280282927749e+00 5.897466466759768711e-01 6.369194369477253481e-01 -6.468782800640785480e-01 1.226440878002359236e+00 -1.201394235284312551e+00 -5.561317771348304184e-01 -1.378087955754728089e+00 1.866477814410622882e+00 2.331708922954541574e+00 -6.327311086128566409e-01 -1.929264780151318082e+00 -7.929485522067835079e-01 -2.747269872570873961e+00 5.282867744277760513e-01 -1.148722736905798181e+00 1.982107721568357184e-01 1.389278422518932299e+00 -7.170784392500704207e-01 -7.717567660803146268e-01 1.744954015001398406e-01 -2.684572097102941868e+00 -1.005807870954677830e+00 -5.391862189125250504e-01 -8.606377544492612719e-01 -1.156128632174546478e-01 -8.775749511085343402e-01 1.638010814228550549e+00 1.641347347977947513e-01 -1.446650379116742879e+00 1.516462411415326061e-01 7.580952760282977376e-01 -1.409309395240048834e+00 -9.731133640757648751e-01 -1.022447007651260176e+00 -9.907998778882000090e-01 5.497318985599949359e-01 -8.818600574645997503e-02 -8.686029044299339308e-01 -1.739534425327277978e+00 -1.324720533637019582e+00 -3.889419318293931699e-02 1.573909240700539225e-01 -9.302638982618274821e-02 1.570658654911492036e+00 7.406314704770743385e-01 -1.480411926759468866e+00 1.591580389847824684e+00 -7.002622505535747166e-01 -1.163681988063062667e+00 -1.594784649517258512e-01 -2.224305980857049780e-01 2.070301135543659854e-01 1.349133349926094239e+00 -1.730546253863597117e-01 -1.508457335743864647e+00 3.717113331719632680e-02 3.342894778888552132e-01 -9.891555217430435532e-01 -2.824854274422246569e-01 -1.123659837461706612e+00 -1.758532862148931120e+00 -2.213903252743115446e-01 -1.938227266685937034e+00 2.334860085941787011e-01 1.152449687006862789e+00 3.873334725108580345e-01 -7.060307247984675127e-01 1.048356761811575888e+00 -1.355311868479666337e+00 -1.100387058165853027e+00 -8.254629973813488730e-01 4.949988971230409041e-01 7.121059262132584111e-01 2.667742759351640625e-01 6.670421020289880876e-02 -1.809931634330808725e+00 -2.901531770263555132e-01 4.913274928862906288e-01 -1.369932415685046312e+00 3.000764918655324798e-01 -1.546986212626255242e+00 -3.069589044416604073e-01 -6.490233064012643771e-01 -1.697414520243418767e+00 1.553911341410151026e-01 -7.588154974547199894e-01 -7.842276141047281879e-01 -1.778915523389348774e+00 -1.044815960143804956e+00 -3.475149879158405675e-01 -8.558641064453726965e-01 1.220289306233993676e+00 -1.274085670661040615e+00 -1.194166703096780913e-01 6.630886388723471470e-01 -2.152959718438165332e-02 -1.291485408720757677e+00 1.890854635950707796e-01 -9.248595510235898542e-01 -2.993185970761971793e-01 -1.032815727610969514e+00 -1.407841453883200034e+00 -3.783897223510017671e-01 -1.301194804568710783e-01 3.937554375540981977e-01 1.358791792350999783e+00 1.355859882657977300e+00 4.168029955507558948e-01 1.816176193855605803e+00 1.988323887636407952e-02 8.113752329408502328e-01 9.720827122782165972e-03 -1.689340608775639740e+00 1.099387502558615726e+00 -1.674074003514057774e+00 1.263495877128537614e+00 -2.198526379625033389e+00 -4.545435258369913689e-01 -3.553899137686992171e-01 1.207533098911593328e+00 -7.909342739326660210e-01 -1.651004686973743141e+00 -6.444443421658487825e-01 1.657476515583162016e-02 -1.979835355371057037e+00 -1.926952426092756632e+00 1.026518020177250134e+00 -1.603531184762763351e+00 -1.794613066515749367e+00 2.445920844891883925e-02 1.515770295522099298e+00 1.524955513457458167e+00 1.374990914394369934e+00 -2.819362660140709020e-01
3.622261792609701714e-01 1.739310735093659188e+00 1.295926748101539738e+00 -4.931905915499185666e-01 -8.739107871108705572e-01 -4.377426779968713877e-01 -1.756373119620140644e+00 -6.239324203310252503e-01 -2.222473812629500944e+00 -7.752685103673503386e-01 1.552684062113716401e-01 -1.657898418565370680e+00 -8.520851655272280167e-01 1.637743359616072869e+00 1.141224236896296734e-01 -4.060749976643608927e-01 2.072710642895218225e+00 7.711274384455465425e-01 -1.332658177099722008e-01 -2.644025516607695803e+00 1.913047348784112645e-01 3.944892368948575978e-01 -1.489673753123100353e+00 1.617850043626552159e+00 -1.779047292073265840e-01 2.790242766915120409e+00 1.076906229301433759e+00 -5.649193596634707326e-01 -1.006503484658045400e+00 -5.413546379377279782e-01 1.113231697034793966e+00 5.378829524358907932e-02 -4.054888689920740363e-01 5.693973367398486030e-01 -1.161604954512727605e+00 -8.422141900956576777e-01 -6.618830952598874218e-01 -7.645026609264016226e-01 -1.114059918357359624e+00 -1.316147613698223973e+00 -2.510707768958033714e+00 1.371456829803030519e+00 7.575598370535236992e-01 -1.317541900055676729e+00 -6.707713896415123944e-01 1.162993476948646042e-02 -2.360294044592946283e-01 1.776569729813931298e-01 8.590225059969269772e-01 1.369853132925706651e+00 -1.744246305637853656e+00 5.970367702829907364e-01 1.230553141204836359e-01 3.796490822084995220e-01 -1.539543585874819875e+00 -1.037043129413423026e+00 -1.027411174712569819e+00 -1.120211538121254957e+00 6.568474229283858268e-01 1.626957214145160757e-01 -9.589521750042511172e-01 1.669178217247136442e-01 -1.958062067550100593e+00 -1.403786965219609550e+00 -1.696270341098902845e+00 3.724181310972614345e-02 -2.440947016242587253e+00 9.491638752635155052e-02 -1.289792593930484621e+00 2.854353213825164381e+00 5.656990115126167007e-01 1.736892642895019045e-01 1.564018134245823255e+00 -1.026304710405554488e+00 -2.524808570331710023e+00 -1.701029660861838044e-01 -1.173194264694596756e+00 -1.075582331048515528e+00 -2.258995538636265621e-01 9.056370203880784731e-01 7.164183195370064094e-01 -1.272807162274862458e+00 3.035876992937907581e-01 5.554929354553015397e-01 -1.986503827891475726e+00 -8.280945754871736897e-01 8.847073816392929668e-01 6.107815478255668867e-02 -4.334984963742974928e-01 9.594394654926278188e-01 -6.134968855711858682e-01 -2.012488212843115853e+00 -1.004961589897193752e+00 -1.903233174771639113e-01 1.183339232406612762e+00 -1.186650884651278881e+00 -1.389211572090673696e+00 1.073475008822771137e+00 1.011287607825931190e+00 -5.072451075473328741e-01 -1.314854328332941025e+00 -1.079918282395033069e+00 3.900513414052597105e-01 -4.126637111641856537e-01 -6.690435295662336967e-01 -1.988758645434983041e+00 1.281246046462920785e-01 1.667256247162558214e-01 1.529961851133780470e+00 9.932731703060040385e-01 -1.836695440086835829e+00 9.002702868409948045e-02 7.404500231332583615e-01 -1.104332938135921927e+00 9.996467116717426826e-01 1.696883215681861179e+00 -5.172845882780687798e-01 -2.000948795986078110e+00 -1.822370509257200955e-01 -1.645203822017899387e-01 1.444826645648135746e-02 -2.124409260288557255e-01 -8.252000441647605600e-01 -8.446314732057241814e-01 -2.480068971674285194e-01 1.582122344548641202e+00 1.239885164192946032e+00 -7.500019715198404935e-01 -2.416678946775669079e+00 -4.540863814361763562e-01 8.008026633639767078e-02 1.647957601522784365e+00 1.219205647262329828e+00 -1.132742440248722282e+00 6.179572817912692972e-01 -2.332026843866545351e-01 -1.515990986032814902e+00 -1.767467368673739436e+00 -8.223723750895610696e-01 -6.867905490666662560e-01
-1.473822514768420300e+00 1.664436432536301691e+00 9.969247306583992607e-01 8.739502554327984243e-03 -1.628822084935346082e+00 1.090149231658705566e-02 -2.375882057066834308e-01 2.028076203097891050e-01 1.402499179060392009e+00 -7.808891666230927120e-01 -5.404627240830395252e-01 -3.767547191148556407e-01 -2.947715353438916885e+00 -7.672921189696079169e-01 -2.336804314470921629e+00 1.244853859789121220e+00 -9.512177699940316256e-01 9.202706497608693637e-01 -1.891566197386398640e+00 3.337211587681937486e-02 -1.058195060826099043e+00 1.093368713870074282e-01 -9.731661709872235777e-02 -2.247391814300419288e-01 1.552484853907956985e+00 -4.222584207001080225e-02 -1.782764990266985317e+00 1.198139817733379298e+00 -6.533852821902349506e-01 -5.731907617386839959e-01 2.637582783493540028e-01 -1.462678115357566533e+00 -1.492502211399155287e+00 -4.328318160522552915e-01 -3.698923029310958177e-01 -2.477956970573403361e-01 9.076364095531073151e-01 -1.211096210563550102e+00 -2.727231338901858315e+00 -1.446695382120366302e+00 -9.251628669207003774e-01 2.340607362330339170e-01 6.760316750869647950e-02 -1.245812890009598828e+00 -1.001518393265852458e+00 -6.529200228389333560e-01 1.012242200605343534e+00 1.135920473559092425e+00 -1.851598454682916506e+00 -1.946052735414929957e+00 1.160111844015669635e-02 -1.160585453762842167e+00 -7.942541724889708998e-01 -2.798564128570500742e+00 -2.378702142376246442e+00 -1.866508493096566967e+00 -1.465073824746546460e+00 -7.973896037320444830e-01 -4.148033096173963513e-02 -7.104489673902364411e-01 -1.241518507592543452e+00 -6.384862629124721245e-01 7.988270539010035032e-01 1.323567398407112350e+00 -2.479071149003486685e+00 -1.224583629681735841e+00 1.006393412500959483e+00 2.455983735296123793e+00 3.581707068994484100e+00 2.602464931918530233e+00 -6.552413688047213636e-02 2.908788663325739127e-02 -1.239587964171798978e-01 1.611057948964192299e+00 4.789220130743263720e-03 1.194986674318366138e+00 7.167797210393519469e-01 9.428759481936134224e-01 -8.347828377366074692e-02 -4.881759594369026178e-01 -2.436517207499390381e+00 -4.674695658334746540e-01 -2.444176737217135909e+00 -1.446076626981025015e+00 1.345152452513215802e-01 2.948080657052006351e-02 -9.117697361625073937e-02 -1.700903997166463011e+00 -1.302436633415327005e+00 -2.304131243865119583e+00 -1.241688391141150039e+00 1.912514860745788414e-01 -1.245807151598621543e+00 1.293703527665005237e-01 -5.269459433824498218e-01 -1.412729505471409297e+00 -1.369212126520504613e+00 3.655015642535678344e-01 -1.743157672796345370e+00 -5.083068653337723397e-01 -2.120820762159964623e+00 7.219583438848220514e-01 -1.205285564115795571e+00 2.697018258845766403e-01 -1.646793179778011540e+00 -2.274387542131034223e+00 -9.506392184844327797e-01 -3.526375467062483615e-01 -2.126939059037708635e+00 -9.813916497266472749e-02 5.239456174220673557e-01 -1.821098678485209010e-01 -1.427564286365939905e-01 -1.315494368097486655e+00 -1.032128428521906782e+00 9.487847879643777071e-01 -1.030166946743313661e+00 -1.072360351915170540e+00 -1.674889023037259284e-01 -1.726955393134951000e-01 -1.357402074028474903e+00 1.329937751797128087e-01 -3.785013080256797724e-01 -1.062424156422023258e-01 -1.945797744200202350e+00 -7.136776657975309190e-02 8.313097066765043897e-01 1.518794657611231891e+00 -1.408360056544543326e+00 8.041090832130112775e-02 -2.316853311474941224e-01 9.731532605764249277e-01 3.693583863823546309e-01 -1.008423536471803716e+00 1.047271267129545436e+00 1.608980196900320792e+00 -3.034072312969411378e-01 1.102576319917019321e+00 6.080342568230067135e-01 7.326381857948972565e-01
5.771853688546045857e-01 1.902290312796001359e+00 -6.139651228887240686e-01 -2.168072702344373270e-01 5.442551613517010445e-01 -6.684559285884162927e-01 -1.363796840700303714e-01 3.469896075029529903e-01 3.276555477534746963e+00 1.703061109801627060e+00 1.049118774298474444e+00 7.480875726319675678e-01 4.881239458940393461e-01 -1.829413685053630445e+00 2.962165508287696869e-01 1.363091231339920384e+00 -2.946244004291969643e-01 -1.722873962459836816e+00 -2.691658620158055459e+00 -1.753227290727625218e-02 1.478806040669882638e+00 1.948964281981672153e-01 -2.339663707987054142e+00 -1.453504838247166031e+00 -1.206575374930173306e+00 -5.192309217524271325e-01 -1.371565996217171124e+00 -1.790375131906584816e+00 -1.687511817486718524e+00 -1.867749144992503885e+00 -1.290460819411002991e+00 1.951707202685264986e-01 1.936868445503310054e+00 7.915247874845871001e-01 -6.562811074539464107e-01 -8.139140802769432304e-01 1.416259660921677377e-01 -7.115266154324620951e-01 2.700497503965265667e-01 3.223579386398509050e-01 1.000937124247243570e+00 -1.377621189721643491e+00 -2.121664630788579586e+00 -2.260370135556004634e-01 -2.882136845030724981e-01 -8.573208855651422988e-01 -7.895570875109522158e-01 -2.006511255953023209e-01 -9.825139570819486634e-01 -1.070181774203022185e+00 8.303096264539011617e-01 -1.041998688282150587e+00 -3.910300987194388900e-01 -2.981227156503790110e-01 -9.913970879643908551e-01 -4.150359094249155834e-01 7.642978920484082561e-01 -4.485383348253204061e-01 -7.059033064194959461e-01 -4.084991323036347155e-01 9.596968363810469416e-02 2.084680251757938585e+00 -4.489012562366697101e-01 8.550464292903874330e-01 1.353124048418861691e-01 1.931981541479382281e-01 -3.206778348510184551e-04 -1.155390227825604077e+00 -6.624725338068050418e-01 -2.606762754503626045e+00 1.484474474266224975e-01 3.040270080062383862e-01 6.850896490734690314e-01 2.414211468762278434e-01 -5.298989204073542014e-01 6.527269516698808172e-01 -8.897402787715920081e-01 2.171756111016130697e-01 -3.588913544661045951e-01 -2.652352548427891477e-01 -4.233873806573942855e-01 2.490278293927460640e-01 4.653430480698308447e-01 -7.277790909393568874e-01 -9.170810611454498495e-01 -9.923903881171717289e-01 1.010851080612945818e+00 1.127075143485172681e+00 4.122436801258878569e-01 -5.835714117180594851e-01 -8.151407340839364468e-02 7.958706709948566438e-01 -7.159063350531423842e-01 -1.532554621463015243e+00 1.927843013449400122e-01 -3.355829878699920776e-01 -3.646534967651701153e-01 -1.982346131368469599e+00 -1.106942771363383260e+00 1.629108126033267448e-02 8.483602662750518997e-01 -5.158250052930583029e-01 1.204229295622312401e+00 -2.405533535663073597e+00 -9.573844801574340480e-01 6.042349770699533273e-01 4.146592563638247797e-01 1.481189988507675137e-01 4.543183313936845491e-01 -2.146709597386139645e+00 -1.446928221521682767e-01 -6.358988442470469016e-01 4.751767404601343614e-01 -1.752536931822135546e+00 -2.859635420074727818e+00 1.155180596030283668e+00 -8.018428827765333722e-02 -1.832383018171997557e+00 6.910086724233324151e-01 -4.234397685716969062e-01 -2.772276393778397643e-02 -5.315724634493557144e-01 -5.937242330304465243e-02 -3.843896706728560098e-01 -9.827844523881651417e-01 9.663158868822320502e-02 4.859002108767780936e-01 -4.192526097112176386e-01 -1.384639174141782947e+00 -1.824940873062496971e+00 9.569277626871637299e-01 -2.257699395940308218e+00 -1.854710138436481692e+00 -7.348845586346777203e-01 -2.808421128085489382e+00 -1.270676018665578333e+00 -4.820152008622309303e-01 -1.170245727393839807e+00 -1.609597084406926282e+00 -1.007922255586563232e+00
-1.090179355688873919e+00 2.436614585745316974e-01 2.511785985113311193e-01 1.252419274786101377e+00 -6.084484107136974851e-01 -2.638303632584249603e-01 -4.762976778222066665e-01 -2.619426568883853612e+00 -2.840519069887138759e+00 -4.129541496958606395e-01 -7.080937544639989700e-02 3.480441676401120898e-01 2.065628402964441168e+00 -8.614362006911117919e-02 -9.211591854821824521e-01 -2.610458357992365919e+00 -1.889931277895489758e+00 7.119278033293190422e-01 1.647134543698022258e-01 -2.133071946121602114e+00 -1.525508847352769370e+00 -4.708638360459337369e-01 1.410017903911969128e+00 -5.396834981589999636e-01 9.914831663444233500e-01 2.136714817922659992e-01 1.401026837901111044e+00 -8.035337229510463031e-01 -5.123697856958834285e-01 5.416990192114551350e-01 -2.137451375388277619e-01 -1.127747660204476698e-01 -6.953060974289997365e-01 -9.199065524538001526e-01 -1.726337574157160493e+00 -2.071811338592665641e-01 -5.365615536246398642e-01 -1.333782088720110170e+00 -1.700468828204595217e+00 -1.075519475583855744e+00 2.065109225668657622e+00 -2.692806742011196741e-01 -4.645459081262011125e-01 -1.172796001399677657e+00 -7.216823853873531869e-01 -8.461279558637007092e-01 -3.380055031001604871e+00 1.370567367775769596e-01 -1.284241587060881207e+00 -5.046847664643793197e-01 -2.645883346524430940e-02 -3.281697299286439051e+00 -1.266632392325547363e+00 1.410493229666272830e-01 -4.679297416759370942e-01 1.417208932281136979e+00 5.594580877264457852e-01 5.819214299693841429e-03 -1.042401591736185074e+00 -9.569082044772606599e-01 -7.864111502806706566e-01 -6.404726419117666436e-02 -1.771219040168690251e+00 -3.957140195123661219e-01 -1.394558760437404787e+00 -8.724679500810889055e-01 6.884336348886493928e-01 3.581681666869884206e-01 -3.107026475996176873e-01 -6.232630359667132858e-01 -2.925047027492012619e-01 -1.175434170114570298e+00 -9.745184406218407869e-01 -2.982806542106155711e-03 -9.733054974152127725e-01 1.125112771752931007e+00 -1.035753083734713531e+00 -1.233264261857943689e-01 -1.942592374077780071e-01 -3.790780820811348595e-01 -1.140994592322705614e+00 -6.352674653305838692e-01 -6.434578803377904999e-01 -1.489322281213353014e-04 5.705416028150547270e-01 1.457061367980072020e-01 -1.096353096975160590e-01 5.816616549602051656e-01 -5.924645040164036591e-02 5.720292411587341030e-01 -5.794185219056683378e-01 -8.029080416357485817e-01 -3.302738349359202186e-02 8.362972492721656437e-01 -2.658664317926733855e-01 4.293468817796596282e-01 3.126086697509885770e+00 1.823945240701756898e+00 3.285935508606997457e-01 -4.970295708233970350e-02 -5.053630159598005989e-01 -2.062383313028416376e-01 1.450041183496849850e+00 -2.177370404249844960e+00 1.285969536419535153e+00 2.818708311480073170e-01 1.887661547370979298e-01 5.527647016822840875e-01 -1.583009495212983841e+00 -1.171018085501009054e+00 -3.778054018665319980e-01 -1.419552103946646569e-02 -4.610764230768764071e-01 9.025216366998027595e-02 -1.296698619488256599e+00 -2.000406877021017049e+00 4.288022325562149129e-01 1.860652977978324962e+00 2.412558367196571130e-01 -7.772418960383514763e-01 -1.182404856743243471e+00 -8.427774212844030277e-02 -8.090282528794291439e-01 -9.733396779766291251e-01 5.852985758394804727e-02 1.525641104168244389e-01 8.546815810430043528e-03 3.152739708405182667e-02 6.252851440860739407e-01 -2.432490756935110188e+00 -2.616316060292272483e-01 3.043967217898641692e-02 -2.180738962516289292e-01 1.191097345067711755e-01 1.523914001488658521e+00 6.914593253964621544e-01 -8.509480015802668440e-01 -7.127347758310303982e-01 1.044282507301162732e-01 -3.141389261537841371e+00
-9.180535154701845446e-01 3.190188754969743856e-01 4.876695303927929825e-01 -1.767482382236027272e+00 -2.154380377937837654e+00 -1.474969591809166536e+00 -2.535506045909297068e-01 -4.418480788807020443e-01 -1.365594568012100662e+00 -1.863355741810119037e-01 -1.448091070828055882e+00 3.181077682401952655e-01 -1.779723706081574930e+00 -1.540193301715015117e+00 5.065908545289695697e-01 2.917550928042320080e-01 -1.543754227425210068e+00 -6.409534597861706873e-01 -1.529710791315962215e+00 1.180558771019111663e+00 3.656600249880270770e-02 3.760168334760486397e-01 -1.942278205800912927e+00 -2.299551269657819752e+00 3.741431824715408250e-01 2.367862518894245649e-01 7.440127369348349395e-01 3.512706844815468021e-01 7.054354052915302598e-01 1.557162139304933302e+00 1.101917281357129630e+00 2.951809376786096450e-01 -1.493859975126157424e+00 -1.805632011559348715e+00 -2.568066582722410285e-01 -5.515322653280936294e-01 -1.792378249471638485e+00 2.282939145549963134e-01 7.939740763127903778e-01 7.652092039307637483e-01 -1.441529519153556427e+00 -6.094444933336010672e-01 -1.513653552248315437e+00 -1.257937522423579146e+00 -4.802282883676076697e-01 7.510636618432032785e-01 -3.820708131728139945e-01 -9.839265410134226952e-01 -1.999458235127279604e+00 4.534860712819879791e-01 6.467343383156253234e-01 -1.402146932231393972e+00 1.892994332266183521e-01 2.537141799282372490e-01 -3.552091767826495716e-02 -9.059000038053509618e-01 -5.912824817686997969e-01 5.009715065436833870e-01 3.312173976291850064e-01 1.675930217691770974e+00 1.299048624188145762e-01 3.997846596609558878e-01 1.467226089678599577e+00 -1.701342916039716213e+00 -9.233787718879014894e-02 -6.939552985359083159e-01 1.512774483086602728e-01 3.872015387923889718e-02 7.754197452783099243e-01 1.769838470207622638e+00 -1.650187052265526422e+00 -2.149252520634430119e-01 5.756838506489952989e-01 2.233022312213460148e-01 -7.256209224904011101e-01 1.456789982076178935e+00 4.933378045536349621e-01 2.180467381759882139e-01 6.454533072330249643e-01 -1.475024906296776406e+00 4.556277630817499036e-01 -2.521672790655404284e-01 -1.639704051660680895e+00 1.399323398110401628e+00 -9.877900836162796239e-01 -1.733625265129782766e+00 -8.716094456003462554e-01 -1.274838029283093643e+00 6.223736991674209129e-01 2.927024896966962109e-01 -9.875607639449516251e-01 -6.345438835579887416e-01 1.569951226883344042e-01 -7.850978415872310601e-01 9.802060186553653853e-01 -3.624462548122681094e-01 -3.046620175354446958e-01 1.409747025502100792e-01 7.702324988918318738e-01 2.335688051781429575e+00 -2.051122667465015217e-02 7.530325009833706007e-01 -5.042101470379599659e-01 1.088874263993493630e+00 1.395442868746030296e+00 3.185486855416687080e-01 -2.017008762026617941e+00 -1.672014680211613147e-01 -1.410673694117715149e+00 3.423441334888842058e-01 -5.549316444004803728e-01 -1.831483649862814644e+00 1.797942159718797228e-01 -9.067313489744323052e-01 -1.536226828954592616e+00 -2.185834938115116088e+00 -1.663318073085721771e+00 -2.147625854354612063e+00 7.099259547727044817e-01 1.032466901127853554e+00 3.881474913627846468e-01 -1.878211997223777074e-01 -1.514852424619822280e+00 -8.473067584281916975e-01 -1.620336777091497371e+00 -1.393259126497448097e+00 -4.981455781633043478e-01 -5.606484816613936939e-01 -1.139829441156694045e+00 1.661288054227929356e+00 2.733610757878113251e-01 -1.414599867026310021e+00 -1.439092216858631312e+00 -1.721362734529161997e+00 5.882742743702744637e-01 4.580868020496123849e-01 4.042783824831792105e-01 -1.957122852167091809e+00 1.177161204572439557e+00 1.089415776464539354e+00
-1.725553841339663386e+00 -5.318721378124672272e-01 -1.312871355826123132e+00 -1.354564332604893284e+00 -9.200254176955207086e-01 -4.046128203645492083e-01 -2.447162159385950275e+00 -1.942772146520785448e+00 -1.109796239597216627e-01 -1.252434923366124497e+00 -5.547247523278623360e-01 -5.140863940005437893e-01 9.430198229427654288e-01 2.197449160013175362e+00 -1.195339968810716025e+00 1.369595531250023202e+00 -9.094904734195689011e-01 -9.919085192155756570e-01 1.307370347165184854e-01 -2.986561643399901378e+00 -2.166310632412987491e+00 -1.204636350419140189e+00 3.449157913825939281e-01 4.601533439212677212e-01 4.933292977565902904e-01 1.400610054330612586e+00 -2.472741598880224545e-01 1.377799124444261392e-01 -1.144561169307320325e+00 -1.178253182704828372e+00 -1.809715352986687620e+00 -6.382803440928750405e-01 -1.194820711656124690e+00 1.051844139643649090e+00 -5.560501569895213159e-01 -1.368988023312569080e+00 -7.647794007656215642e-01 -9.615699720158014108e-01 -5.782697673336377742e-01 -3.845804686555374108e-01 -4.400285976817977507e-01 -1.323766864154308776e+00 3.025621630988287736e-01 1.395952984074126935e+00 -5.434775709563970381e-01 -8.222401683008196960e-01 1.358103152000957603e-01 -6.396756768308429209e-01 -1.576134773096302011e+00 4.572009605904721607e-01 -2.638834731008491419e-01 -1.807346889094372022e+00 -2.506064452949779975e-01 5.689789589280899174e-01 9.852565252043684607e-01 1.849979363815360545e+00 -1.662301907226387820e+00 1.307852922537719342e+00 -8.907543323922142431e-01 7.352510269483051308e-01 -1.585228430201864880e+00 -9.068419521722114185e-01 8.466400982492499061e-01 5.094997638034516330e-01 -9.561915850617344059e-01 -5.738440354561790135e-01 -2.956188429457939026e+00 -2.879534121141340552e-01 2.046865837737234184e+00 2.373543472993346892e+00 -1.275709115079992850e+00 -1.962343695801116228e+00 2.276912967130802212e-01 5.952455350369870724e-01 1.668614036515070065e-01 1.528767672582617365e+00 -1.958841918149948125e+00 -3.840685746672587997e-01 -6.226994522856192926e-01 -1.481274284757676973e+00 -1.447094236650925181e+00 -7.013891430072451971e-01 1.934210824893152492e-01 5.186326032431635147e-01 -6.172967526987635511e-02 -2.032016698914937969e+00 2.447214474699495601e-01 -1.545409137682581147e+00 -1.000679602076977481e+00 7.699411035049062990e-01 -1.719097275903487487e+00 -5.386807248289041672e-01 6.750146916955993559e-01 -5.154789238841044341e-01 -2.392298986876714995e-01 4.749812229175805478e-01 -1.875395185155233513e+00 -8.018497076255574896e-02 -2.290055295335110819e-01 -6.376404527116906751e-01 -1.194311015371526175e+00 -1.486336770443725586e+00 -3.813450023442006565e-01 1.171033399193984081e+00 -2.153925565081206972e-01 8.969040868902486974e-01 -1.185553305307219807e+00 -1.352545585884036505e+00 -7.395452487394498231e-01 2.531970235102846134e-01 6.035810441412815530e-01 -7.939300265646375169e-04 -2.123748148776648526e-01 -2.309110547865690588e+00 5.708169156986599990e-01 8.149173477766519236e-01 -7.648803440635953965e-01 -4.544470486402883425e-01 -1.433344161162558583e+00 7.302982573763354690e-01 -2.282480788085191475e-02 -7.609031938348501667e-01 -2.650332907771549840e-01 6.421769386578239924e-01 -7.380076399153476796e-01 1.541103230667477453e+00 8.675565119404144987e-01 -3.765620485912775650e-01 -5.132431697068057241e-01 1.853693034844213494e-01 6.579669624679543860e-01 9.033540337689628386e-01 1.107372450906210837e+00 8.810173841431143682e-01 9.840264513754819475e-01 1.639669451516173160e+00 3.104901908551198186e+00 6.455308106375212684e-01 2.375577629972360771e+00 -1.645481418396999906e+00
-2.110501689432013606e-01 -7.992226955518676457e-01 1.143097528414861314e-01 -1.414070762086323318e+00 6.940621399364708122e-01 5.111462659054434310e-01 6.260357517655138482e-01 -7.772625785399099874e-01 3.154918090912532391e-01 -6.231100092680680325e-01 -1.313075753220265929e+00 -2.022174609963621528e+00 -1.658983781632429599e-01 -1.514228143836967959e-02 -9.980558790235771749e-01 8.662335128401152939e-01 1.891931612132152551e+00 4.684016630003517423e-01 -5.816316236412713003e-01 -2.197045092463286498e+00 -1.044831088356470428e+00 -5.521293854708938520e-01 4.076840649308774434e-01 -5.790686243654652454e-01 1.033335576640772357e+00 7.696842107595222027e-01 6.621092437111795181e-01 3.575961496599451284e-01 -1.812505125850308318e-01 -2.358892738445497739e-01 -9.418120100562412667e-01 -1.867724442216343483e+00 -8.183549543634447421e-01 -2.843837415095258336e+00 -6.294114102821698475e-01 1.294910947204114038e+00 1.710193859057992927e-01 -1.402369120707948946e+00 -2.710045254846158436e-01 -6.078322111567174835e-01 -1.093135152973751412e+00 6.308040948820178295e-01 -5.906214989868593390e-01 1.160684522101509686e-01 -1.368864892044809600e-01 5.254506049653060451e-01 1.382781627158412574e+00 -3.554728825175348245e-02 3.820304472640781435e-01 -8.795796158383142327e-01 -1.893174411147776182e+00 -4.725594924663100715e-01 -5.690400732321732047e-01 -2.015448973771153174e+00 2.802408926007685791e-02 -1.002319982306660640e+00 7.025975742613526087e-01 -7.240438724842082063e-01 -1.889466783047589304e+00 -1.420939688550305169e+00 -5.632889911272944694e-01 -4.094615897889048589e-02 -1.343946410582917306e+00 5.997988891278692725e-01 -5.934708268801865971e-01 1.255664663916144619e+00 1.855815641999361276e-01 -9.392433097583565704e-01 5.241392500432610069e-01 -2.902712037562962810e-01 -1.610075318892350227e+00 -4.776494878342673611e-01 -1.028823768171486241e+00 -1.183303745420532849e+00 -6.436486642598127084e-01 1.267399208689910184e+00 4.720918863657985048e-02 4.870619255160976713e-01 2.486499052877235993e-01 1.372480880450641649e-01 3.822930426570230605e-02 -4.783319167457239507e-01 1.961568042979627280e-01 2.443367891777758483e-01 -1.435248475836492954e+00 -1.777557989120089665e+00 -2.334191589886375762e-01 1.337042593931258905e+00 -1.329680568657677808e+00 2.323437207420716022e-01 -2.065405589045791857e+00 -1.406443687638586404e+00 4.353254243479769414e-01 -1.778314994020862572e-01 2.292710221106664115e+00 -8.999553092426133827e-02 2.021871463623731824e+00 4.127342931192831688e-02 -1.744960255616700984e+00 2.694312305519373507e-01 1.312341851136394677e+00 -3.793945474266803841e-01 -2.152758135609598167e-01 -6.416767810056595023e-01 9.774669260041017882e-01 4.587894744377173928e-01 1.585074111137679542e-01 -4.491793706449770940e-01 -5.384187908151181201e-01 -1.504133524139756872e+00 1.221415871808545717e+00 -9.685078731766749716e-01 -7.596235863063163229e-01 1.083718826106370853e-01 1.111273624613768607e-01 4.374692772397946183e-01 2.692940330122006731e-01 -7.121016344833036582e-02 -5.411464070733104093e-01 6.241275781378070597e-01 3.837554545488595092e-01 1.526462268456623361e+00 7.091030463523363414e-01 9.820224533809115419e-01 6.746904138145191077e-01 2.324472378885685531e-01 -4.103750815847916344e-01 9.107595037423066829e-04 -5.198292098781253506e-02 -3.400393699564630001e-01 -1.917442528373262567e+00 1.121151367809761545e+00 2.675497624420386522e+00 -3.072347163894859068e-01 -1.304893057101869536e+00 -4.336384919541270699e-01 -5.686860021757326189e-01 -2.099165832449274571e+00 -2.444287264131605464e-01 8.721978092856870202e-01
9.024967212699818164e-01 -2.225339195437499917e+00 -3.103731816783175557e+00 1.482224148070933722e+00 -3.909617915003321675e-01 -1.274121768810712485e+00 -1.882431229286004148e+00 -7.356293653652942188e-01 1.139889064279614672e+00 -4.345509971848393049e-01 -1.772445033097506950e-01 1.533765479467266601e+00 -9.328791809061824924e-01 -6.308123125038536116e-01 -1.218193694782213621e+00 2.741590421345593831e-01 -1.317677323038004000e-01 1.166943976977198538e+00 -7.571126878393173720e-02 2.503959397688640287e+00 2.874310899200655522e-01 4.979189639491675701e-01 9.530655364323511458e-01 -2.781827670807912600e-01 7.936076908996771984e-01 1.492708524153014249e+00 2.014432639106838785e+00 1.021771536119643775e+00 2.976004548732413824e-01 1.343751294963285159e-01 -7.107894409293316618e-02 -1.051119146661376069e+00 -2.332004400316711745e+00 -1.184763749776158281e+00 -1.788590106709929906e+00 1.379964024258531374e+00 -1.013264319338645469e+00 4.387237687035877021e-01 -2.698217423355241396e-01 -1.139308733351666714e+00 3.325148057079180819e-01 -1.477003943134315822e+00 -1.224077595998343648e+00 -1.980126110263918660e-01 -1.107179563327204352e+00 5.217037320855497651e-01 -1.185878010350925466e-01 3.087265139597706320e-01 -1.866034054916493767e+00 -1.128330588681010660e+00 1.016834638702415861e+00 3.619109870908373550e-01 4.033831207152100418e-01 1.641191698633649720e-01 -7.462016265956512573e-01 -6.707192453557614398e-01 2.251308035067382252e-01 -7.471850023534379881e-01 -1.944602820866851545e+00 1.204588732572678733e+00 -1.498541080178776852e-01 -2.698317372199297015e-01 1.345246716469265628e-02 -1.200143539350341682e+00 -4.636535146760814019e-01 -2.376739057723824544e+00 -5.189660103323232576e-01 -1.128716085017944959e+00 -3.634802683303787196e-01 -4.420713467824375908e-01 2.167607671316692297e+00 1.948863648622875644e+00 -3.850187692958219055e-01 -9.716743995710014348e-02 -9.529640859471860681e-01 -1.976872122604564685e+00 -3.899659816105124910e-01 5.446942715861375905e-01 -1.028919421212907803e+00 -1.176060727005374673e+00 -1.241845965015852427e+00 -1.151856470627249662e-01 -3.580627823876754712e-01 -1.589557749508703766e-01 8.129648067391769262e-01 7.615742877651979770e-01 -4.682699395337175940e-01 -1.343267685258014155e-01 -3.972510035671702466e-01 -1.754492492573178075e-01 7.234527752111278298e-01 8.333602421753519840e-01 7.130861154717544892e-01 -1.822317049358833208e+00 -1.298250258451794537e+00 1.540715409138152969e+00 -3.483663122154438407e-01 6.329377496626150679e-01 -1.002052932707599764e+00 -1.223293295773074885e+00 -4.178950914828625796e-01 -1.110415174435660735e+00 -9.932956127424427129e-01 -4.503466895643525314e-01 -1.034387880942344573e+00 -6.843739787606252234e-01 1.721775586336508068e+00 -2.246308633340371730e-01 -9.782016859312786528e-02 -2.671963020373769870e-01 1.699844919926764564e-01 -6.836728132294345173e-01 -9.126201539771969240e-02 7.212017467804354709e-01 2.088721557792103389e-01 2.213798520977407203e-01 -9.406245137193389727e-01 1.395591250448944720e+00 1.846103244567347534e-01 -6.995258440331167948e-01 -1.109589634804162728e+00 -9.589612606581511267e-01 -1.783171099866859288e+00 -2.347783212853306711e+00 1.121605178807445202e-01 -5.265590299788506234e-01 -1.105056287890352928e+00 -2.470311627797735499e-01 1.412690305258937684e+00 -8.488759831661668587e-01 -7.864624901448449279e-01 1.425457507070087226e+00 -8.199299469969009158e-01 -2.279611784221320381e+00 -1.774676019117065628e+00 -7.834962379651633224e-01 -2.303526961516112248e+00 -1.004206899489385574e+00 -6.961814413499005372e-02 5.372110163211675227e-01
1.387146800082446951e+00 -9.273231790040608047e-01 7.043569762471592055e-01 -3.051923425636948739e+00 -1.572469760199888933e+00 -1.818700149826780466e-01 -2.911313450879142284e+00 -1.555066026487504693e+00 3.283276097592284781e-01 -1.796359873398991391e+00 3.511171401822371640e-01 -9.743921685581860559e-02 7.018112481114898715e-01 -9.263201668131157973e-01 4.507605298945591144e-01 5.132190149167287219e-01 -1.050803984689363313e+00 -9.620326394856715257e-01 -6.054774805550077188e-01 -7.954494992229347305e-01 -3.018795976814096504e-01 5.162779480845084423e-01 8.603853478098312246e-01 -1.181573781594263961e+00 -2.422790736506460763e-01 -2.750081993868843666e-01 -7.689278884818349091e-01 -2.238296773010063578e+00 1.223727674055479442e+00 -1.145670803385901548e+00 9.479684810654431804e-01 -7.553125294650182564e-01 2.390055282800653824e-01 -2.067669975121108339e-01 -3.629642080919690539e-01 -9.065313599388951094e-01 -8.075206343888735594e-01 1.534588549584245509e+00 -1.798029070126256679e+00 4.785846970355190355e-01 -1.499192071515255131e+00 -6.406501438528758863e-01 -1.504800787444434018e+00 -9.027160781603766893e-01 -3.195591593836207833e-01 -1.203110981466623541e-01 -3.887453253910846396e-01 -1.066410987047511805e+00 5.011508966058701997e-01 3.760189677060384872e-01 2.660796358799058514e-01 7.170102920374861188e-01 -1.494848052578058306e+00 1.821052243134500426e+00 -6.166954316473227671e-01 2.787197746342061633e-01 5.324503047709661097e-01 -1.607061650237771033e+00 -1.309999358655955737e+00 -1.253548593509307363e+00 -3.581209286819030946e-01 3.677819322924603118e-01 8.213016166182890432e-02 -1.124766446661813690e+00 -4.559270435872356808e-01 -1.955921700303866195e-01 -5.101684166245781249e-01 -1.252208284515852865e+00 -3.557443717315051934e-01 -2.903616572344711599e-01 1.491617228806090822e-01 1.517477238651829596e+00 -3.447944798527792509e-02 8.404934160068978644e-01 -1.941018983634759110e+00 -8.102751385982951415e-01 -7.312913806586670562e-01 -4.364388390201003332e-01 -4.018621409790594234e-01 -8.205893569164515178e-01 1.769866592097872671e+00 7.905687047664747835e-01 9.634451351701274202e-01 -1.658442279228173444e+00 -1.181444575993317869e+00 -2.210291278978170904e-01 2.046926635374016201e-01 -1.789920625616918670e+00 -1.523699964853776345e-01 7.690433464638407601e-01 -1.928190896875430882e+00 -4.970673047464798655e-01 2.642706293025368636e-01 -1.275726470470241791e+00 -4.811522692479086039e-01 -1.968273578056559225e+00 5.862877425943936460e-01 -1.066091975811508608e+00 -5.436011592449755403e-01 -8.920075950925011599e-01 1.929459424947288504e+00 3.552352297922571900e-01 1.945071297022984702e-01 -1.020082654604844041e+00 -1.213465063010036760e+00 -6.205983349543070515e-01 -9.816270807117700725e-01 -5.130797488105077742e-01 -1.803354826398692268e+00 -7.109065448227098738e-01 -2.956585922411155143e-01 -1.191831350535765388e+00 1.552370247883453069e-01 -6.256496053147247993e-01 -1.385166201297018063e+00 1.389039024491220742e+00 1.702618037235665849e+00 -5.378114828284730198e-01 5.022037700471587707e-01 1.123739028157340281e+00 -6.769373467615669160e-01 -3.229342591665998463e-01 -4.674248942839923093e-01 2.983518629689905360e-02 -2.619172160758540535e-01 8.269673084861847157e-01 1.093384520013399586e+00 -7.966836448029090967e-01 7.644268687159412323e-01 -9.831195182281918798e-01 1.566240350623219424e+00 4.099042754294970337e-01 1.183474117390426628e+00 9.261840075370781911e-01 2.329749593599756419e-01 -8.161815349937089348e-01 9.351800635289443664e-02 2.302577820979878176e+00 9.743631416005766877e-01 3.529092402236716497e-01
-2.007788087176072267e+00 -2.155758246971148484e+00 9.068648531220327991e-01 -3.879019162553330458e-01 -8.492826668968166404e-01 -2.931672542433931827e-01 -1.111874108068043210e+00 -9.110664513556692920e-03 -1.429889613710509932e+00 -1.589237668539198456e+00 -1.168906097226473317e+00 2.154720381532859164e-01 1.088335478917305421e+00 -2.105424008396749869e-01 -1.118761276012347539e+00 -5.152014737936478905e-01 -3.529288665949503745e-01 5.718233398134044965e-01 -5.319037152400729607e-01 -1.216952621550827729e+00 -1.951811059269844995e+00 5.624320214103131210e-01 1.822813411808030581e+00 -4.204229872761066078e-01 -3.975402298885868380e-01 8.149208679568736846e-02 1.151402354391963589e+00 1.283060531890339584e-01 1.992183936114085618e+00 -8.768263349832083886e-01 -1.661681521203975734e-02 -1.191935356914235244e+00 1.333250529960360309e+00 1.229407453741976353e+00 1.148502959142397195e+00 -7.586777133993438671e-01 1.871845426503233156e+00 -2.900066872860367906e-01 -3.484594908938314917e-01 -4.610258801339690571e-01 2.871385812709176810e-01 7.683387101531404806e-01 -5.249413084745973013e-01 9.105623510937829179e-01 1.985440016053984236e-01 2.006492004517471006e+00 -1.275817378363591992e+00 8.549593533038301052e-01 1.320785533743092099e-01 -1.012114025450661647e-01 6.091407919076919919e-01 -3.971262834963198984e-01 -7.968680974291959540e-01 5.600203601633896300e-02 -1.185372053999275421e-01 3.812803217172482384e-01 -1.774185296069375195e-01 -3.332906102002476390e-01 9.848816482083525559e-01 -3.653372533298060443e-01 1.079866642459258230e+00 -7.176092076548075127e-01 4.744290387441103124e-02 -5.110947008079883558e-01 -5.855251296298923380e-01 7.697211443678223519e-01 -3.164779777262017868e-01 -1.040082216865301667e+00 -3.297094590462573693e-01 1.127984813080123994e+00 2.521260528508788012e-01 7.393450109134073189e-01 -7.900291558268032199e-01 1.044477601525706900e+00 -2.949057735181800366e-01 9.740482548147513242e-01 1.250535479311790099e-01 -1.133032238195104568e+00 -5.649409548428626637e-01 -1.067203229128280029e+00 -3.579972455650644925e+00 -6.573447094542531621e-01 -1.795870692793693824e+00 -1.364668148157968108e+00 -1.586572466463965103e+00 -1.813543122772877325e+00 -2.331869925365583462e+00 -1.039534937218405064e+00 1.769749396872407621e+00 1.784077672120925717e+00 1.503889683642904762e+00 9.506613715183044322e-01 8.933208231535095800e-01 -1.240153943154212790e+00 -1.977487802729265942e+00 9.448308412754726771e-01 -2.086679282017648018e-01 -2.080996118087067970e+00 -4.109351196766596881e-01 5.379992038186895975e-01 5.278866437096636499e-01 -2.649274591126849487e-01 -2.635126385426047602e-01 -2.740534595840681820e-01 2.551156398344673337e-01 -1.314349981319883343e+00 -1.047959534249315761e+00 6.177120908622736328e-01 1.510993007897155183e+00 1.509398665048080845e+00 -8.725335358998604907e-01 -1.700895148225804565e+00 4.276107289871570322e-02 -7.137937494264963156e-01 -3.021578112749402356e-01 -1.315780348982701575e+00 -8.853338710886673457e-01 -9.584832344477784982e-01 -1.228041814290586897e+00 -1.054397487810730061e+00 8.112075038996378051e-01 4.073838976930259648e-01 -1.150680160028199950e+00 -7.174157629373818512e-01 -1.094700376221508176e+00 -4.614020065623435918e-01 2.967603798851791708e-01 -1.304341455829314489e+00 -1.371695419068447830e+00 8.563021774338975822e-01 9.264941426922366219e-01 -3.788281113914935827e-01 -1.501394859244353785e+00 -6.672128999399502547e-01 5.839175613965480460e-01 -2.114737591423395902e+00 -1.735907912765999761e+00 2.138531034021444802e-02 -3.659661058909994269e-01 4.242899075454142910e-01
-5.185613486122079285e-01 -1.881969624655814299e-01 -1.061568922670912851e+00 -8.515398737559912723e-01 -1.742178980096354968e-01 -1.070489882391100434e+00 -1.334776867123971700e+00 -8.641374823569551999e-01 -1.614829726450020875e+00 -7.766293173477855083e-01 -9.211513785812888155e-01 5.533559678853200436e-01 1.251156677940056028e+00 -5.046788491786904363e-01 1.574767173872325121e-01 -4.469668674885964033e-02 -6.702003841460996147e-01 -8.792292414848097426e-01 -1.657520850531028600e+00 -3.440381361331668608e-01 2.350297574936841549e-01 4.061324796813803317e-01 2.054751830414178304e+00 -2.024654046073349686e-02 -8.116092198365899568e-01 -1.212180289030428515e+00 -1.680568649748859889e+00 1.286686631480278731e+00 -9.991540304511189463e-01 7.360822451508527431e-01 -5.215298112699133792e-01 -3.919391849915419557e-01 1.236157758081595365e-01 -2.136505223190419411e-01 -2.047732064604506907e-01 -1.127250106133362850e+00 -1.007609689124781438e+00 -1.222892567533139685e+00 -3.434947690463155401e-01 1.141812691957951653e+00 1.982740573019927899e+00 -2.701945300767669700e-01 2.093425708282385667e-01 1.712454086842681855e+00 -7.315405407805862514e-02 -2.094669567858130632e-01 -6.978340432901941615e-01 7.551440705338331449e-01 -6.967999649669920359e-01 9.293266833786368863e-01 -1.334309051636973553e+00 -7.359021739123976502e-01 -6.895484298657230671e-01 -1.182333018964702026e-01 8.613387728132414489e-01 -1.173433617910276894e+00 -6.612386425010307045e-01 -4.726010466966820700e-01 -1.501014919644134471e+00 1.442131718023083709e+00 -5.772151438376407206e-01 -1.680809184041128557e+00 -2.219382196016605135e+00 1.318978306114838128e+00 1.053529379460153848e-01 -7.975111672612611446e-01 -1.017596252850116789e+00 4.503825528184856042e-01 5.891012578152483581e-01 1.096317648310275672e+00 1.300917725090169341e+00 -2.028766185296411451e-01 1.094667521563623680e+00 -5.571189177673248061e-01 -9.447068274288248357e-01 1.209595876779462786e+00 -7.742271287223162490e-01 -3.024655379450740811e-01 1.823185543389734542e-01 1.066511997880362078e-01 8.520087271092127157e-01 -2.059724104701253777e-01 -5.426940775995557908e-01 -7.656976799104332487e-01 1.361706586495227800e+00 2.950505054060769128e-01 9.705923580597255462e-01 -4.289717191738302571e-01 7.830834149272588585e-01 -6.572724828157986421e-01 -3.522938539929947321e-01 -2.844359152909649580e-01 -1.174735174662169035e+00 -1.566911431532031829e+00 -4.725229080736520482e-01 5.063624303602727306e-01 1.729140821116837534e+00 -3.412845817899302914e-02 3.909395362164840293e-01 -8.075845159377530447e-01 -6.803031356848662226e-01 -2.079367449429563752e+00 5.628997731283703621e-01 -1.436018518028125968e+00 -1.392505144208679768e+00 3.799687910235492825e-03 7.922766202346688269e-01 -9.431343408123932237e-01 -4.937638157727701205e-01 -1.824574706209722286e-01 -4.767376425498867087e-01 -1.899284465561006385e+00 -1.395078796541675104e+00 -3.930484767365375331e-01 -1.042094351423819010e+00 1.209017474947265969e+00 1.917336362155706908e+00 1.314831468470562259e-01 4.311929669555407685e-01 9.561299648527321615e-01 4.738312030002088671e-01 -1.083012958459782515e+00 -2.075401038298422041e+00 -8.447247498639779417e-01 5.619664356046036868e-01 -1.566670842651340712e+00 4.745936209109242743e-01 1.450376728183345065e+00 -1.160023734106254034e+00 2.216170020763502113e-01 -7.316708376673456415e-01 -4.512244406156030729e-01 -1.762454520679540115e+00 -3.097604025182738030e-01 -6.673290632550235024e-01 -2.743838936159948005e-01 -8.698312402460623982e-01 -1.096685056417763704e+00 8.709799017932663423e-01 2.427394576074763943e-01
-9.816083874508994001e-01 1.106508360186933659e+00 -1.868104529911607026e+00 1.666877329925534168e+00 -2.626882590883601321e-01 -2.832674339633423521e+00 1.480946459077644439e+00 -7.872051687314024493e-01 -1.205941623748813640e+00 -1.159518158524446285e-01 -3.283090156915369900e-02 -1.238644974306080115e+00 1.076134181486950059e+00 1.381263742301397091e-01 -3.738560491784331252e-01 -1.290821860858881558e-02 9.469514566109901721e-02 1.363724778843938834e+00 9.179557540713620400e-02 -1.326178868050913673e+00 7.780470270533315080e-01 1.120632731619262967e-01 -3.447040717339617810e+00 2.992745113647856184e-02 2.613035743716669024e-01 -1.143619695308155437e+00 1.712958679145581420e-01 5.016361711588711580e-01 1.869737407989399136e+00 2.913377645088142676e-01 -1.289811704999686670e+00 -8.706997872549888662e-01 1.046519586001697144e+00 -6.698695473536110667e-02 -1.133220767426732278e+00 -1.812452781468713581e-01 -5.047278273425981343e-01 -9.477472915988851415e-03 -1.078683635350909276e+00 2.636562803534788557e+00 -4.604323728749698530e-01 -5.213567581332393397e-01 -1.412612228530816694e+00 -1.195135161666926349e+00 -2.255351944410910026e+00 4.040201887636795108e-01 1.135411016159945941e-01 -1.007809312004600139e-01 -6.741678582525745256e-01 1.130679284328154344e+00 1.343605808907531562e+00 -3.185980285048175542e+00 -7.594540550202333318e-01 -1.019928149109163434e-01 6.721353669924539087e-01 -9.553489736746444416e-01 1.639993440651514200e+00 3.795173846881619295e-02 -1.295076001157454693e+00 -2.777079567271632885e-03 3.413346429206987609e-01 6.525814573391625073e-02 1.097706191008327170e-01 -1.333124161306403765e+00 -1.504040470633862592e+00 -2.146240761989028467e+00 -1.692832271459961513e+00 -5.237784989531548696e-01 -1.216832456995351919e+00 -7.596563838059441354e-01 -8.472233831528303005e-01 -1.226127705032067139e+00 -7.870004498434447493e-01 -1.374633855534579174e+00 -3.628377782403102714e-01 -2.411875036186073851e-01 1.915322241274609177e-02 -9.980549792152203503e-01 3.938581702837175569e-01 9.589370505293209890e-01 1.245633506118634104e-01 1.641916729185232127e+00 4.536023578988511440e-02 8.154722771483077226e-01 -2.761042929389564970e-01 -8.751659016438240180e-01 6.505534637474771342e-01 3.312077283283187401e-01 3.540329833431715700e-01 2.893245687781336728e-01 -2.066636412177313628e-02 3.997348763378288060e-03 -4.038370829847905408e-01 -2.065823748956351069e-01 -5.250312348276969798e-01 -1.246924382323486347e+00 -2.804163461459271200e+00 1.232196806745287310e+00 -6.994542141892206022e-01 5.606175996812229334e-01 -1.842994343898666232e+00 6.780854802852751551e-01 7.322757582228085482e-01 -2.504328150162175581e-01 -1.862089272728962852e+00 -2.525609796078670533e-01 -3.319509866924791996e+00 -6.419755713122453633e-01 3.613567996060603194e-01 1.537735234380037452e+00 -1.711579001818744894e+00 1.659223877062940389e+00 -3.497812391171713498e-01 -1.235863919520579834e+00 -1.987751656921170895e-01 -9.494226773662114427e-01 -1.374099337005353139e+00 8.641338143889723544e-02 2.188903222021070683e+00 -1.000239630398296886e-01 -2.346705410125084601e+00 1.425062072724026851e+00 -3.067608630654232726e-01 -4.292001953616533250e-01 -1.121387431000974377e+00 6.795008309850490980e-01 1.920411785419274819e-01 4.975381491881106233e-01 5.207020179129022708e-01 -2.821382054649764548e+00 -1.049169176491985045e+00 -4.613197562730034784e-01 -1.354725066935742905e+00 -6.503102153688775644e-01 1.012679133733238146e+00 -5.378713660845193534e-01 5.097828339963855759e-01 -1.198611568566566143e+00 1.521430430659897332e-02 -3.047744773179194677e+00
-3.558945055786687517e-01 8.662877115560423391e-01 5.476053541419839688e-01 6.520961361296684355e-01 1.308134855643965144e+00 -8.975251716355707732e-01 6.566519351516133529e-01 -2.483763192796070385e+00 -1.241775386059452702e+00 -2.213683548321893735e+00 -4.890680113757894798e-01 -5.965047410490427193e-01 -2.284294768769163042e+00 2.314870884061641931e-01 -5.927975112283015990e-01 -2.805841397526838699e-01 7.655071264448369724e-03 2.920351641231406781e+00 5.724434720825836154e-01 -1.398964424041997168e+00 -4.666819460166191647e-01 3.884243572977316150e-01 8.872464393011614270e-01 -1.137180722306514680e+00 1.525595348953169061e+00 -9.518611046789884345e-01 -3.822030041842049974e-01 1.550698036150191639e+00 -8.249874378574675315e-01 4.073485938013246543e-01 1.396875035275908061e+00 1.442777563874128033e+00 -1.748862421232630360e-01 -3.182059082327196031e-01 -8.451157476540076541e-01 -8.618537923780301979e-02 -1.376433057552263195e+00 -1.369079783862610977e+00 -2.097776944123998621e+00 2.229327627640576903e+00 -8.215660634402115470e-01 -3.060440152446520234e-01 -2.005853283671203968e-01 -1.324618188766673255e+00 -8.094368706305941075e-01 6.214135721018370084e-01 -3.475911351493679025e-01 1.370285566689902756e+00 -5.635419072080725955e-03 8.327087577238471150e-01 -2.695851510230267700e-01 3.615104199242178962e-01 -7.482472239184907448e-01 -3.718082942848445760e-01 -7.004673336187619004e-01 -5.296767137953755089e-01 -7.120652176765593921e-01 8.791108838762843325e-01 1.253790381706081147e+00 2.497510783302713033e+00 -1.194446012435188775e+00 1.038266085787898252e+00 3.766755872597101762e-01 5.279032127571443578e-01 -4.822196947010234380e-01 4.881283714069170609e-01 9.760642923535115534e-01 2.493326529408098402e+00 1.008156321478455686e+00 4.335951641658150058e-01 -2.040183860156608020e+00 -5.367082341935685008e-01 1.099515037801658490e+00 -1.400514423090610805e+00 -1.988747678221539639e-01 1.293704194976748600e-01 -7.256763990869548042e-01 -3.481567454600123512e-01 7.328989217679033885e-01 -2.131818525425211774e+00 -1.805626030171866070e+00 -1.946726929372776471e+00 -1.485883836109800571e+00 7.421651258958125719e-02 2.008281408890605579e+00 -2.042460649816882690e+00 -7.182191522394861805e-01 -1.046447079368348243e+00 -1.403102417343571107e+00 -2.385954247274359563e+00 -8.161867061983502092e-01 5.474223596174797590e-01 1.005578629184956219e+00 -1.585637519961463848e+00 -2.024977915478237467e+00 -2.250260035599193298e+00 4.851383127690083730e-01 -3.136792027210875689e-01 9.249044875660528131e-01 -2.850223124324717527e-02 7.144132959964248908e-01 -7.641997655619915397e-01 -2.197724153764421817e-01 9.324390004072244942e-01 -1.626964775593359391e+00 -3.499850163505267148e-02 -7.348841342026884993e-01 -1.399575869863418198e+00 -1.050680781820288123e+00 -4.264621249656336266e-01 2.195798786729673546e-01 3.836152513904609873e-01 8.195051254151457520e-01 -3.481557272567655792e-01 -1.241133307496173011e+00 -8.241578745074660262e-01 9.373959645219524794e-02 -1.530334686299352320e+00 9.532532408318592498e-01 1.018625820048078667e+00 3.928951246774033956e-01 -5.049336030652267215e-01 -1.200864301179075611e+00 -2.902795136629556794e+00 -1.133746975582095473e+00 3.259699337380066453e-01 -1.491414574721483012e-02 -3.499257103059172924e-01 -4.173622026818949449e-01 -2.808219703429219116e+00 -1.389615641639881938e-01 -4.490068363639854732e-01 -1.114794066665806938e+00 3.415987538969231796e-01 -1.057738429568333860e+00 1.396573908962345234e-01 -6.276339850944737675e-01 -1.068744150979282548e+00 -3.261094820222832702e+00 -1.080457097124449595e+00
-3.668502567022029481e+00 1.287668924433795103e+00 -5.369398917597731913e-01 -9.929815834385132822e-01 4.127750366237176172e-01 1.626419972926411717e-01 -2.094732008950281887e+00 -2.180595395646560686e-01 -2.001005733741680059e-01 -2.169958634543395881e+00 -7.629073472754087371e-02 5.118263538984065830e-01 1.391185251016030522e+00 -1.687327862895652841e-01 6.133802956121541250e-01 5.362658907095576577e-01 -2.339057442453197633e-01 5.358825206217939785e-01 -3.231314350476701680e-01 1.385000615582586025e+00 -7.767588252064360210e-01 7.242079328930943749e-01 -5.995981244249852793e-01 -1.236030809460432645e+00 -1.642421707403839193e+00 1.321271854744032526e+00 -3.957550156952451270e-01 3.442398167708609485e-02 -8.545340197621307254e-01 -8.614237547363399194e-01 -2.478710250398561965e-01 -1.735939565958149577e+00 -1.325154690821085612e+00 -7.223097139514351728e-01 7.708632742606952304e-01 -8.240930736417068081e-01 2.375860885769087716e-01 -3.122880401640389936e-01 -7.932293805231638295e-02 7.687410668386082113e-01 1.614029812124612995e-01 -1.158742552928232028e+00 -9.666582026143659689e-01 -4.119433700788328601e-01 1.245815232630816810e-02 -5.681946819603665988e-01 -3.932989869684779261e-01 8.441957585483137461e-01 1.437072082095001979e-01 4.464195237856923848e-01 3.997481142363945028e-01 -2.286727658340233837e+00 -9.206051247884883271e-01 3.295993972749737821e-01 -7.248217414130845304e-01 -1.335044997082216245e+00 6.097138961288650627e-02 -6.717611161812025999e-01 4.174944083487431845e-01 -5.126125730764584387e-02 3.985990627326312374e-01 7.646978813929708463e-02 1.319219344901927826e+00 1.351511850180889374e+00 -1.538937933925889956e+00 5.427945290871272199e-01 -1.632801988406070048e+00 3.933911418980543667e-02 -1.288374920009117908e+00 3.362884232573055965e-02 -4.957296648745722067e-01 1.469973193297769987e-01 -1.985904205030649017e+00 -5.938858579711810970e-01 -7.068416332189131346e-02 -1.996500485612796805e+00 -1.863867898462465422e-01 -9.796843751527473110e-02 3.356367599384587064e-01 -5.944375239188796067e-01 -2.254984719972289664e+00 -9.695235139829203597e-01 -3.379999746747909262e-01 -1.169049371051581687e+00 7.931000826241777490e-01 -1.168372067537307268e+00 -1.758500337753354792e-01 5.207782092871218182e-01 1.546863554776099214e-01 -5.989788996979108493e-01 1.073265121746993511e+00 -1.192841171202556172e+00 8.115581741771308311e-01 1.547243163604249960e-01 4.336908544992059689e-01 5.016832118486398429e-01 -8.565976823387922989e-01 -5.456280708149479075e-01 6.413381557208992501e-01 -1.251455977931507646e-01 -8.617459018186955921e-01 -4.045582097527299359e-01 -1.380910662331860939e-01 -1.055318872182802625e+00 9.769429069243447117e-01 6.092007037568282213e-01 2.629411091839800041e-01 1.714106250221929306e+00 3.672911905144056188e-01 -3.568608179028635030e-01 -2.304044650503966896e+00 -8.950663663482727461e-02 -9.296712137481676352e-01 -5.132230532825495795e-01 -1.458710969418965275e+00 7.897355723979391229e-01 9.477250722539800609e-01 1.435442740482495205e+00 1.272651597905067433e+00 -1.318588524082295654e+00 -6.973960858650473105e-01 4.359608014870317572e-01 2.921746036656248588e-02 1.769618852215518956e+00 6.193523538867304890e-01 2.545945995070491089e-02 1.171053425335962239e-01 -9.996303210107588821e-01 -2.451761500052907217e-01 2.341902620533073520e+00 -1.779541459960581329e-01 -3.886657595461955744e-02 -1.803994644846492190e-01 2.432558030713335151e-01 -2.320842400852710929e-01 -1.603474057705917666e+00 -7.864350242484432485e-01 -3.777497179828580576e-01 2.397792716833530680e+00 5.619636611941716264e-01
3.145638316596859330e-01 -8.769371673326012417e-02 -5.183511690909704539e-01 -1.161120595894709756e-01 3.572969462563428400e-01 -4.952545393746008578e-02 -8.295218245032649484e-01 -4.687862398105781953e-02 -1.414083156066466174e+00 -9.427417617884629175e-01 -9.616111687924598916e-01 4.819376952405094450e-01 -1.720949489945858280e-02 -8.894378483021176951e-01 2.855520264601174585e-01 7.264982229253877932e-01 7.631465433629224249e-01 -7.658071706848627036e-01 -6.966913728730883548e-02 -2.593957064096413578e+00 2.204049183808566070e+00 -7.165529234759026034e-01 1.681438777554424169e+00 -1.646606591261779773e+00 -6.221662718374922907e-01 1.382068814313268112e-01 3.012678021091980823e-02 2.491676588770946055e-01 -8.514216553024360756e-01 -7.275077341624753835e-01 5.429242017294119149e-01 -6.603813945003434993e-01 -5.282023339313081101e-01 -8.862306409104795391e-01 -5.798185103742760083e-01 -5.923048281125192771e-01 -2.869340860899743939e-01 -4.081758150223250836e-01 1.077871648519630687e+00 -2.052752841831718467e+00 -5.703392997632780181e-01 2.828441171500769014e-01 -4.762307914153217081e-01 -2.441792962626419428e+00 9.238545653995562379e-01 -9.676092543659652323e-01 -9.502272497282349129e-02 -4.235756348498180834e-01 1.462385591104016225e+00 -1.464622462076644593e+00 -1.583036089132456636e+00 -1.556422462740037149e+00 -7.444008377497550732e-01 -3.521416074858407796e-01 1.810554105562897642e-01 -5.564150957142874887e-01 1.716379985245116258e+00 3.287236981398638513e-01 9.101286382947579856e-01 1.131515313073574669e+00 -1.782511665064097528e+00 1.742075349813964613e-01 1.689752510281829601e+00 1.030806496813413964e-01 -1.104496290511330470e+00 -1.032263189533662251e+00 3.178381655567294982e-03 1.014010136556705577e+00 -8.139961297854462208e-01 -4.432535353217828544e-01 1.273225692840170009e-01 1.235031563764676099e-01 2.199332664478158783e+00 -3.955447753993854287e-01 -6.285939902620056863e-01 5.758530484951183137e-01 -1.449852870750894862e+00 7.166325369916085597e-01 -4.409525069056626778e-01 -4.802332732722535691e-01 4.773851602278433859e-02 2.136047921625408574e-01 1.040418501205324864e+00 9.553130170858951109e-01 7.391697481300023576e-01 4.678239065482730497e-01 -2.661366514981579279e+00 3.770658345586981874e-01 9.178116073095987648e-02 -1.878469891371868705e+00 1.989810910242089115e+00 -1.219158227434898212e+00 -7.462692359855171986e-01 2.174005256023191279e+00 8.582749030499317033e-01 6.458370545642445615e-01 2.089870614416077799e-01 -8.770291238739578166e-01 -4.091390581842324625e-01 -1.717352510157075907e+00 -2.457684026699008317e+00 -1.426908441093339697e+00 -2.285758112403080577e+00 -1.871055757762459359e+00 1.944683459308100548e-01 -9.965967256255207074e-01 2.583763452779984426e+00 -1.727123758168233714e+00 -1.218618378149623899e-02 -1.565576105861230971e+00 5.485839854353051770e-01 -4.102481499711203849e-02 -8.968965604913854694e-02 -4.788741978555310363e-01 -6.181729464291647602e-01 -2.079909233883193043e+00 2.536778736754997654e-01 2.636307088158317047e+00 2.822394331314266314e-01 -6.826622086810697487e-01 -5.400464680303441838e-03 7.750766311662098396e-01 -1.569389851903760347e+00 -1.361990056048229869e+00 -8.863593890683096888e-01 -1.827595884716282093e+00 -4.849391922483868300e-01 9.703884930554245170e-01 1.598613387812144182e-01 6.144211136412042196e-01 -1.303936153509288820e+00 -9.512022800802644174e-01 -2.170906399280840393e+00 -1.785596808928978874e+00 -2.055826417644247561e-01 -1.193818073699606463e+00 -2.586101475551854656e-01 -2.516305117709158323e-01 1.220417091403723786e+00 -3.460471841183486164e-01
-1.586484622512380538e+00 -6.909008394787397034e-02 -1.634728392443825173e+00 2.027460729076669965e-01 -3.450030669795383087e-01 -4.231846069551476464e-01 -2.664608555851332161e-01 2.278593644708497123e+00 -1.568198682793217946e+00 7.505444000043486330e-01 -2.134670644131495543e+00 2.106047508480121344e+00 -1.745632907000231215e+00 2.964502444871052189e-01 -6.096104273359146397e-01 -2.740613741653063484e-01 4.008314081221169833e-01 -2.260692837732094951e+00 -6.920289946587885321e-01 -7.087170802679979564e-01 -1.633575484873615868e-01 2.860726110360158336e-01 4.994208340424042825e-01 6.064268234700894711e-01 -7.385495939233970297e-01 -1.826317737363764016e+00 -3.542620567903820850e-01 2.933713737047394590e-02 -1.505122280497087406e+00 -6.372729874768945368e-01 -3.217574410781880445e-01 -4.511023762735342779e-01 -1.033918997003294926e+00 -1.280161349741552712e+00 -3.089609497563455598e+00 3.053019320867550457e-02 1.527726519299265895e-01 1.861834400061309625e+00 1.405079188401619494e-01 1.095870210311244763e+00 9.712876930162877009e-01 3.068824049374190843e-01 4.408379912777286580e-01 6.116907734656381601e-01 -7.884058856686348982e-01 4.872578177930480536e-01 -6.478487086113821070e-01 -2.071939773139091834e+00 -8.718035050359876914e-01 4.890342606945771720e-01 -2.343261079875213204e-01 4.515116544402343890e-01 1.535014792169979048e+00 3.363898944546408476e-01 -4.977592078352788274e-01 -7.774223697810938027e-01 -8.666531436153781520e-01 2.697352974165262429e-01 -2.758250177355447419e-01 -6.083983371476492374e-01 -1.603301853028883395e+00 -5.933792597992905149e-01 6.977920843498235381e-01 8.494162656078549922e-01 -1.026237257136010772e+00 2.863512727798866453e-01 6.368425535428464679e-01 2.805268372446232394e-01 4.786781591948318648e-01 -1.749157401619326535e+00 -2.681159931898152493e+00 2.234688630564182488e-01 6.189726221020139807e-01 -3.130228778325042094e-01 -2.856948822966564605e-01 4.024872528896157320e-01 -1.664186242903590296e-01 -1.194286396407390427e+00 -1.535239230255883269e+00 1.028056454892724902e+00 -7.062787219576193154e-01 2.190638524361623873e-01 -3.314840961488151549e+00 -8.010741729128659783e-01 -3.447226879669451072e-01 -1.273750324977089399e+00 -1.912001236040354324e-01 6.443551265062223976e-01 1.700832125478823453e+00 -6.493277214294143063e-01 -1.234473859406817198e+00 -1.430150786925309614e+00 -9.230893780966568096e-01 -4.003461920806404284e-01 1.613958050300479119e-01 6.654753962010254709e-01 7.903021022385332550e-01 1.024469845153145875e-01 6.545690477539563012e-01 1.380366216089421227e+00 -5.617552101300637979e-01 -7.902870077149490302e-02 1.497285918711030561e+00 -9.505959439547675416e-01 -1.164076019992876132e+00 -1.385975197289950556e+00 -1.374461940195580212e+00 -5.389721466456742771e-01 4.414143243494719204e-01 1.919628987745503057e-02 -6.693112369978334586e-01 -2.088704150342523658e+00 -3.356817165448048867e-01 3.739375722332586305e-01 -4.214021296283515516e-01 -7.966657336964358960e-01 -8.602911680505583858e-01 -3.302748133096470307e-01 9.492106054136444371e-01 1.359056068519595817e+00 -1.933228824467539964e+00 -9.708139645264622919e-01 -1.444486705769169488e+00 2.938521516938514822e-01 -5.810643924829661522e-01 9.275773978574493039e-01 -2.513826889743676629e-01 1.455658837876265377e+00 1.207210538278786993e+00 -1.070837878088382933e+00 -8.599192004709176052e-02 6.986010783495523180e-01 1.878388457128489009e+00 -7.279290377094898012e-01 -1.734089905476911839e-03 5.588125517944561027e-01 -9.909950849865920008e-02 -9.120889017261176734e-01 1.634739248681517376e-01 -7.831663930778403060e-01
8.664665031055688305e-01 -3.952544340814118096e-01 1.503513075173873670e+00 -1.832402224030283688e-01 1.079764304368687089e+00 1.690841340956979577e+00 6.394008930732154872e-02 -4.323281435843843168e-01 6.812734583122755927e-01 -5.923732553519241995e-01 3.160148412751918601e-01 -1.819939072544742853e+00 -4.457647039124985056e-01 -1.147933933732098843e+00 1.289173132811970213e+00 -2.627458867882778021e-02 1.084194741155360964e+00 -1.170853619137068202e+00 -1.206423964547011618e+00 1.008888360596665201e+00 3.656354532275401525e-01 1.531047331290099844e+00 -1.331067779217701474e+00 1.079575939323423467e-01 4.981335221324122431e-01 -1.915062204603574236e-01 1.298968237956445781e+00 -6.786678364212510584e-01 -6.937800676157027668e-01 3.200934821906399885e-01 -7.736066024807729535e-01 -1.296075303217039565e+00 1.283353108595399472e-01 -1.792968429827366705e+00 1.660056111168891180e+00 -6.605895327512782966e-01 9.661261192808788534e-02 6.510783527948893479e-01 -1.818589013727302639e+00 -6.457968680530005168e-01 -1.871287186818618498e+00 8.585550059538150647e-01 -7.689404420531868734e-02 1.284497265070225325e+00 1.371136086852250635e+00 -8.839273797384237241e-01 -1.611780157830891014e+00 -2.509433736936377279e-01 2.301560861936852387e+00 -3.140215959886606956e-01 4.451017376812636539e-01 -1.163786553202481810e+00 -1.566868204910572826e-01 3.344438072973036635e-01 -2.831677035268201359e-01 -1.184103248234039452e+00 -1.535275914368718686e+00 -6.157951615114618527e-01 4.152118948054713821e-01 -9.486524784291821000e-01 -2.276554816060978315e+00 -1.908263727166963131e+00 -7.719727765156386701e-01 4.370659470823045067e-01 8.117086042010440705e-01 -1.368058917937068797e+00 -6.258622989946156789e-02 -1.445094695637696436e+00 -1.427876699264783895e-02 -5.368713301188381415e-01 -6.450618483491502575e-01 7.169856003951298185e-01 1.811335514173792127e+00 -1.785702953661360670e+00 1.365608998163018173e+00 -2.851672860224306882e-01 -1.777883828546601430e+00 8.113857983181986810e-01 -1.662833266387264031e+00 -9.987550714420464493e-01 4.398598444942537766e-02 -7.741437551948950890e-01 -3.893028553589642504e-01 -4.923766765398633338e-01 -1.583693660503626005e-02 -1.090262780561816226e-02 5.404271032470290281e-01 -2.448835752516564490e+00 -2.089765717409159063e+00 1.056576475920724401e-01 -5.402990267249528911e-01 -9.996164001928730114e-01 -1.000612173988832954e+00 -1.553380430755896935e+00 -1.343608743474767220e+00 -6.491425841536899166e-02 -1.174553207126139975e+00 2.954180130332632603e-01 -1.305470631217149069e-01 -5.354864865371744553e-01 4.008348924192506324e-01 1.089228797430609852e+00 7.559342744020376426e-01 5.223205509212023312e-01 2.096769369461331800e-01 5.637701977607094683e-01 -8.662558099599617645e-01 -6.035927069005042611e-01 -6.137876224893941135e-01 -1.699595270311669848e-01 -1.314292963324737995e+00 1.393940498452346799e-01 -6.181218430286383736e-01 -3.929087647264981747e-02 6.276202967376219855e-01 -1.822497530076061967e+00 1.261066174541232376e+00 -1.485259493464554881e+00 -4.139349610484960862e-01 4.646513890526124957e-01 -2.190157157306366287e+00 -7.672653428907010298e-01 -4.817233399022582407e-01 -1.003490421304476632e+00 1.672649423746066732e+00 -3.105993685579889196e-01 5.371396697908795703e-01 -3.226149129420978756e-01 -2.024845383985716119e-01 -9.269673747910448514e-01 -9.338499743741098813e-01 -1.248177692018508589e+00 -2.296672811595420693e+00 8.988282055778791246e-01 -9.393824115645493800e-01 -3.471648745635943278e+00 -5.488331353308145699e-01 -7.793829296780797611e-01 3.606351876611647578e-01 -3.026662218389580605e+00
-7.525439704309987432e-01 -1.010703947647058287e+00 1.595082007031623617e+00 -3.067919875464216961e+00 -3.016403488507486408e+00 -1.244556269989334663e+00 3.903915913978280305e-01 1.666201789631842622e-01 4.329456680423369175e-01 -2.756393266057950875e+00 -2.044947959007966387e-01 -1.250744335528067408e+00 -1.337358625587917071e+00 -1.942862017729206636e-01 -1.992149020542015592e-01 6.371074711830322368e-01 -9.516927151351877168e-01 6.377730153238289068e-01 9.093275184774272102e-01 -1.451980704936038924e+00 -2.420807438324701077e-01 -1.989751995384847039e+00 -1.261085831700648363e+00 1.608983082659290575e+00 -2.116471937377558010e+00 -7.564570601848249476e-01 -1.632144620570662452e+00 -6.788393432151991203e-01 -4.214888106647118882e-01 -5.569229801521679013e-01 -7.579397791177532318e-01 -1.109072733712548553e+00 -3.709777024513566945e-01 -1.454901378972413006e+00 -4.345172802915552301e-01 2.749895118134227934e-01 -3.639296875054190417e-01 3.413971468893907679e-01 7.988260419153800918e-01 -8.508730876980126201e-01 7.089908053486182471e-01 7.579749323996121113e-01 1.825269979071114379e-01 -8.367420154584791492e-01 -1.357309643376622743e+00 -8.679809869950290135e-01 9.082613081297088442e-01 -2.562745046570750196e-01 -7.945290678713903265e-01 -5.691910971123738117e-01 -1.283857465899085115e+00 -1.328615210074728381e-01 -4.456441419463443299e-01 -7.935129148623383255e-01 4.489214338399769577e-01 -9.637553264556688593e-01 5.488974303518445730e-01 -9.854891551109036252e-01 1.021980064611262451e+00 -1.461560690606444890e-01 5.678425506986356508e-02 -2.171743200428718268e+00 -9.683621995178308683e-01 1.598953434871009716e+00 -4.459138917622797460e-01 -9.462247143693272022e-01 6.484323731704444427e-02 -2.131972186269464054e-01 5.774212690023085015e-01 1.971831847579911035e+00 -8.625087966033142539e-01 -1.072864778696733357e+00 -1.157963132892671609e+00 8.019123260240141882e-01 5.583637771110726289e-02 -1.820174544732853006e+00 3.500494295165624825e-01 1.356469005638824221e+00 -4.001627169588112959e-02 -5.694266636643754431e-01 2.504429235014751232e-01 2.805787553837438275e-01 -2.330795271412475778e+00 -1.131118198180895013e-01 -5.423045255688201394e-01 2.285132309125295288e-03 1.349226100840745568e+00 3.640485963157063520e-01 -1.096050102440374457e-01 1.374964673819777383e+00 1.528252937394035220e-02 -1.502103901310918976e+00 6.580261759675376521e-01 -9.865364514988896882e-01 4.704747034700369479e-01 6.251946196763976671e-01 2.465882813668888174e-01 -4.636238702434906100e-01 1.846022092779359802e+00 -1.297332770237117572e+00 -1.232883846839629260e+00 1.636184514031922443e+00 -9.308109027122896117e-01 -1.534191932470935882e+00 4.524118355944549696e-01 -4.991534938580622360e-01 8.161720559223506477e-02 -1.161941699944070372e+00 -4.004156823963325729e-01 1.344015161884151377e+00 -2.768219380051746281e+00 8.410262292374379167e-02 8.296308380041321484e-02 2.155352835957982660e-01 -1.372779156555567481e-01 -2.941798121807822075e-01 1.193295843899254693e+00 -1.482287887465332910e+00 -2.903223329499420302e-01 1.044666531477890015e+00 -6.762042784902771997e-01 -3.539967183830379227e-01 5.171528771533748792e-01 3.625818687100448301e-01 2.354901466852260761e+00 5.267435076705028196e-01 6.987429044062587469e-01 3.876930795071709124e-01 2.586513950057172107e-01 1.454595258270895419e+00 5.733934981870445480e-01 2.724373241174264937e-01 -1.107959868093444600e+00 -1.909605234980645161e+00 -1.467917238894721921e+00 5.441467433788022001e-01 1.630908849715407005e-01 -5.125549584037992767e-01 -1.186278156807583084e+00 -6.140316797294826934e-01
-1.422831942709386066e+00 -5.687761176754755343e-01 -1.020712114526615588e+00 -8.658973891893966268e-01 -1.051173329803812395e+00 -9.288834766705360568e-01 1.039975914378105992e+00 -9.760684413786242519e-01 -1.381487734029918091e+00 2.986390380843904624e-01 1.273144113284038204e+00 -9.217925818840441710e-02 1.477844644193752943e+00 -9.354294181587734514e-01 -1.214391308482785758e+00 1.603222308148768427e-01 -3.633201059601411011e-03 -6.337278012644730341e-01 -1.023125595088123507e+00 3.628085293979289028e-01 -5.311866960192135334e-01 -2.551310764305572576e+00 -5.913475372029804861e-02 -1.360732977098269680e+00 1.272665423554778741e+00 3.640993292252439062e-01 -9.608257174382511812e-02 9.407467735584319479e-01 -8.983212498854535599e-02 -5.933196794986216327e-01 -7.203628090062219602e-01 4.680484167065135370e-01 -4.183093940036873293e-01 -1.008982309733523319e+00 1.393645341765346046e-01 1.240227796450833475e+00 -4.371694324917710373e-01 9.958436448038942013e-01 8.610786132873383680e-01 -1.429395693493134667e+00 8.148596916540387092e-01 1.783442914872598872e-01 -7.136049731261802087e-01 -4.675222349546245826e-01 -1.721493285686244823e+00 2.067430325579765193e-01 -1.319521857574596613e+00 8.205617864921367355e-01 2.199619855148482905e+00 -2.562412342211528582e-01 -1.530329316991537958e+00 -7.420230611805707088e-01 -5.675095006098379580e-01 4.345257516734244430e-01 -3.326403824711453572e-01 -1.490517793897730980e+00 -9.174899115685186679e-01 1.035468055547638794e-01 5.023498749036893196e-01 -3.129195427286426967e-01 -1.706257324434229616e+00 9.765084931740841689e-01 -6.823907609422004417e-02 -1.232966851652679496e+00 5.192423203143657906e-01 -8.537432646105088674e-01 -1.077664123683421266e-01 -5.154784544081942865e-01 -5.589953149277322453e-01 -2.154471402272565950e+00 -9.993218646705472885e-01 1.351542801682049877e+00 1.279477343198928696e-01 4.871788714023529421e-01 -8.925170477487391896e-01 1.160648963208365858e+00 1.743946940035331072e-01 -2.882154979649413362e-01 -1.453229238684983660e+00 1.457179122418277739e+00 6.066612306600208671e-01 1.938076799195398436e+00 1.200887436968890443e+00 -1.121777837720104642e+00 -6.817971020282979078e-01 -1.719100487386157963e-02 2.165723157041993252e-02 1.357069745363002067e+00 -1.699898724798238892e+00 -1.528776607219734518e-01 -2.043097731254110094e+00 -3.788743375046847717e-02 5.093015555704537567e-01 -1.461083718914297017e-02 6.916662500031309779e-01 1.401806817293771712e-01 8.300571612879688033e-01 -6.912431052444920621e-01 -1.669503726308886993e+00 -3.011313451889149340e-01 5.686978127333028876e-01 5.429011460947679168e-01 7.481889869734711374e-01 -6.762879091600006998e-01 4.351298409381482157e-01 1.602690738783636215e+00 -7.895384336837107941e-01 -7.393105108537607606e-01 -6.571740212921522994e-01 4.828340920531223324e-01 -2.813344280266158126e+00 -2.028966329126005608e+00 -5.779590684571710435e-01 -8.873337407934215326e-01 -3.204764449287771932e-01 -1.459825338483066837e+00 -1.202926685037048804e+00 8.718438874344405232e-01 -8.688460237139465914e-01 -1.459236415793709662e+00 -1.758670266720071096e+00 -2.155523758256495004e+00 -5.733103695904321478e-02 9.285314244784342863e-01 -4.704032079459650739e-01 7.750918623827977028e-01 -1.013302686651704088e+00 -1.347484345662236960e+00 -6.099553173480326551e-01 4.837749958500245917e-01 1.108173517922641960e+00 -2.975026955608220947e-01 -5.208082982085814328e-01 9.994227590439995756e-01 -4.343508808767755358e-01 -1.488685058645223602e+00 -1.501787098957717781e+00 -9.099224417282489874e-01 -1.503609288990883919e-01 -2.132997173424281634e+00
-3.613556758216660003e-01 -5.753255254766701521e-01 -3.061865290946218510e-01 -6.372628581850690033e-01 1.272206322029341141e+00 -1.306621061085186719e+00 -1.476057261972873125e+00 -1.921542443332931338e+00 -2.165667289820397023e+00 4.195256725316510726e-01 3.044275540376644718e-01 -1.570852080147349339e+00 -4.453969434606951383e-01 -1.552396160846329087e-01 -4.381006607819323273e-01 -1.256784183226990148e+00 -2.528302600650618737e-01 3.911494280495442233e-01 -1.285546047175802897e+00 -4.395600967776686074e-01 4.374045387244040461e-01 4.466939300346972064e-01 -1.479820247035068537e+00 -3.201134006286892042e-01 -9.658711111433261332e-01 7.540909750590593097e-01 4.541066449887299905e-01 2.729511243909238383e-01 2.672498784221444268e-01 8.000102487193113676e-01 5.340831332620092908e-01 -1.184592608767672361e+00 -1.289553490946671488e+00 1.492218396151217208e+00 -3.169384670074098520e-01 -5.481165377507872805e-01 -2.541022021973864398e-01 -2.297397860987716367e+00 1.081304950235900009e+00 3.937516018916855653e-01 -2.214681332090182142e+00 -1.507536550116444218e-01 -3.904973389118911453e-01 -3.907402412328349062e-01 -4.242295572488199995e-01 -7.663755106617743396e-01 -8.932639798709980372e-01 -4.818602977740993887e-01 8.580580591988392625e-01 -1.742620103715312618e+00 9.875238198271381329e-02 3.035333494790058428e-01 -6.292637388330585280e-02 -1.176317013697196545e+00 1.773952458358992068e+00 -1.182599854590886901e+00 -9.993792768284054384e-01 -1.425156805089309975e+00 6.908410344564095418e-01 1.132683017284267901e+00 -4.550075376414147166e-01 -8.617974411552650205e-01 -9.076650177570924072e-01 -8.942275628456934911e-01 -3.455206479092452487e-01 -1.579316895721720737e+00 4.577863689139188286e-01 -1.235095415568185029e+00 2.842457165049973589e-01 -1.920308913652995830e+00 3.146752661591296074e-01 1.207062955661234005e+00 -1.722535974661600910e-01 5.886103739529086054e-01 2.751867264159156834e-01 4.729379499204763304e-01 -1.560557722117252633e+00 -3.096848446920368314e-01 -3.698276093167997547e-01 5.095646923834299402e-01 -1.091253045774792430e+00 5.206854117711272600e-01 8.839793265594545479e-01 -2.757482122936277258e-01 1.135140139332833753e+00 1.255260526253008768e+00 -5.252165142097025008e-01 7.919502605476930190e-02 2.182497173704648574e+00 -7.678641960803983535e-01 4.257488422405691919e-01 7.432532918388020660e-01 9.475093395011463526e-01 -8.388720857905326844e-02 5.004048029190396596e-01 4.428258679436598566e-01 -3.285475320445852554e-01 5.938791659155886471e-01 -1.901714417101760590e+00 -3.103011020858187363e-01 -6.883556485832651450e-01 6.332310201717077369e-01 -1.689365532925880542e+00 9.351239119012287881e-01 3.180454005177359433e-01 -4.826953816697697741e-01 -5.495671391400238637e-01 -1.077575864538341310e+00 -7.146954709187780530e-01 -8.854632536206922255e-01 -1.617024694961042730e+00 -1.027621293374258171e-01 2.485859993170385640e-01 3.931787574608241465e-01 -2.142947251569316425e+00 -5.763013678586618310e-02 4.025684646965031477e-01 1.141225149283323637e+00 1.191230011552238288e+00 -5.299990408264223379e-02 5.719906791549833613e-01 6.331632973704278688e-01 5.201050377661494695e-01 -1.648108233239079290e+00 -2.399827018742259011e+00 1.544304069658246847e+00 1.809124844453835257e+00 -1.493747707238113565e+00 8.371011902332985144e-02 -2.004084137149126477e+00 -1.879514858595274562e+00 9.167080167269702207e-01 3.990285292167304598e-02 -4.932733177719332840e-01 -1.475374983484218694e+00 3.736032771471267111e-01 -1.538075748989461644e+00 2.951271590027153557e-01 -1.808494694706290096e+00 -1.182221504852921878e+00
-9.848741478391134230e-01 -1.309464218593890505e+00 -1.301945685046906886e+00 -1.438322860537584846e+00 -1.705732247028642679e+00 -1.497243785829213580e+00 -2.491217834364591877e+00 -9.755880753745378442e-01 -5.408456824084022230e-02 -3.691644538249213015e-01 -3.349212915407248081e-01 1.021793552154637158e-01 4.065614145095281518e-01 1.652574536846211362e-01 -8.898781848054706511e-01 7.643747053671468526e-03 8.525881821002218031e-01 -2.763687125632373620e-01 -7.712351212938055589e-01 3.937458392927833950e-01 7.255168149787630805e-01 5.363264446034735622e-01 -1.170229775798927507e+00 -8.831486510222470443e-01 -3.345461341632675056e-01 -6.042416142494411169e-01 5.114443915284959674e-01 1.327957182682466319e+00 -8.323834593253420788e-02 -2.035227966591481419e+00 -2.816240515100131847e-01 -4.647688968131822862e-01 -8.853514650712360767e-01 -6.622775205844295687e-01 9.124341075158036718e-01 -1.144285071045116453e+00 7.869153430562910723e-01 1.782785252502302464e-01 8.894855519415917344e-01 -8.787363080540440130e-01 -8.089581284395147565e-02 1.002330163274074648e+00 1.719176458181395306e+00 -9.434802178526960903e-01 8.365594110697618935e-02 -1.025016526718524723e+00 8.441610230618371569e-01 5.594135534893576178e-01 1.610543595502480704e-02 -1.472743316126540192e+00 -1.463797763710483535e+00 -2.935827897005074960e-01 -2.979000934238222320e-01 -2.012546095114941647e+00 2.722860685125229607e-01 2.008607622976387397e+00 -1.704755029163335767e+00 -7.792446039000123781e-01 -1.686414215532441085e+00 -3.520280307425555089e-01 -2.627226656098808011e+00 -9.403582806817524231e-01 -2.593002601046326405e-02 2.408196968112393144e+00 2.357494442362027265e-01 1.267837074239997142e+00 -1.944533146788309130e+00 5.643308239840160168e-01 -1.877127299637239011e-01 -1.461301607967652405e+00 1.067664973066190515e-01 -4.824075000895588494e-01 5.873974280281775151e-01 -3.541636919598223909e-01 6.829229327715924391e-01 1.248609828980744990e-01 4.557030233818493148e-01 -1.495426887263008542e+00 -9.078569841969642562e-01 -1.236472631794022004e+00 -1.677005797005818311e+00 -6.540250291748009870e-01 -7.073596634603314115e-01 -7.098876493243140573e-02 1.453209422189034525e-02 1.136291601589710237e-01 2.648006274036218688e-01 2.191702238332927377e-01 -5.403442244585071608e-01 -1.030770745227914675e+00 -1.300368505860719281e+00 -2.957965862362651466e-01 1.670701519443073879e+00 9.327531546971892240e-01 -1.497430377692792414e+00 9.807164259997704914e-01 2.517659936897304607e-01 2.465610087873379985e+00 -5.522328630690807039e-01 5.957512055821468852e-03 -1.691133937723454439e+00 8.765607821061629501e-01 2.675687591794232434e-01 -1.391788372946466401e+00 9.932566558050065497e-01 -6.127850718351511849e-01 2.249953319088833226e+00 -2.711058552799910926e-01 6.259107169563258299e-01 3.446708089692867016e-01 4.520908359433150614e-01 1.006574364231992647e+00 9.154964032153749542e-01 -4.395100673969391525e-01 -1.173218781444880232e+00 5.299974892764218737e-01 -1.668666759238505826e+00 -1.191061042025615357e+00 8.246219755699893961e-01 2.995849368057110218e-01 -3.852712459420247204e-01 1.203659331900450269e+00 5.332753657536878356e-01 -1.268392083962817329e+00 -1.155026551660012668e+00 -1.088912777979468283e+00 -2.885742340588249855e-01 -1.318897682550266071e+00 8.721975366292502585e-01 -3.256278275985340781e-02 3.621773519793702323e-01 4.616702986511711515e-01 -1.337642924585263238e+00 -1.289013977501932029e+00 4.907677113670629310e-01 -5.098528405069421288e-01 1.024186978113598157e-01 -5.866859796575323305e-01 -5.388827905126274409e-01 -2.133083311684388916e-01
-5.297507138660042525e-01 1.154039394333601226e-01 -1.036044678370324768e+00 -2.482648066555036781e+00 -7.472807192694006506e-01 -3.478339203446015326e-01 -1.045923838192557298e+00 -5.784646795547769837e-01 -8.372338274366731836e-01 -1.032805945406487513e+00 -1.000777022537877814e+00 4.599373736744353791e-01 -1.501479328633187782e+00 1.055512233764548391e+00 -2.785051175712497940e-01 -3.907074595964346031e-01 8.070839424628880598e-01 -1.532292432639597912e+00 4.927802958173986836e-01 7.885476960082604680e-01 -1.081614352939967993e+00 9.400447603190515977e-01 2.497159453812794805e+00 -4.842726402415319931e-01 5.875000755691737186e-01 -1.037559542139242751e-02 -9.663054036172186168e-02 9.192100083648799824e-01 1.257998892622886666e+00 6.053613227290767229e-01 7.358783617475718186e-01 -8.270039232798114259e-01 1.114442332387751255e+00 3.082223454992659706e-01 -1.831574776821157657e+00 1.013958285053221609e+00 3.516517283319202103e-01 -5.816114636400582238e-02 -8.444625802892721245e-01 -9.990250607674524552e-01 -1.874734949538001016e+00 7.788514967038779879e-01 1.231331120510126054e+00 8.797920993203790507e-01 1.382023684208935066e+00 9.979570697253650202e-01 3.756588048799908153e-01 -2.376262705198735059e-01 9.015216474490637955e-02 -6.113677273047898320e-01 -6.083535454082859006e-01 -7.329779092654695738e-01 -1.354088031510718437e+00 -5.797483449063970395e-01 2.133709831303472471e-01 -6.884222197226574913e-02 -7.181627391125611215e-01 7.819649595020469746e-02 -2.280532249471495243e-01 -7.212590122923673297e-02 -1.807787711500763894e+00 6.464194575722587155e-01 -3.577332766766634919e-01 -8.985194105213167859e-01 -3.936654476444060302e-01 9.355126221010834353e-01 -1.584862619771707948e+00 -2.173760018486549761e+00 -6.274642475587955959e-01 -2.417200172381732404e-01 -1.188559706351241113e-01 -4.074654374797273548e-01 9.428650095120172381e-01 -1.545109568202167827e+00 5.848624982597224742e-01 -3.895176840010160513e-01 -3.536444110175296918e-01 -2.052571600591013734e+00 6.603277736500672290e-01 1.755330225611458461e+00 -2.475007328189918088e+00 5.673364847575317338e-01 -5.621187548881731999e-01 1.109448363220296496e+00 8.378704023402782086e-01 -1.393759435070583974e-01 3.884601631423208468e-01 1.897714200675718055e-01 -1.422516454615412318e+00 -5.367985111748601046e-01 -1.308779316211486909e+00 -6.418470837577258115e-01 -1.171172829848749597e+00 3.138050870990941599e-01 1.846274006545804702e-01 5.468081288241006810e-01 -1.036565204480150548e+00 -1.041016102002845223e-02 1.083055689922990811e-01 9.766218435190721081e-02 -1.423712138782837311e+00 -7.012368905591111201e-02 -1.917170340592765643e-01 1.645477341412696415e+00 2.091436198812178238e-01 7.371857218896674113e-02 -1.956217992324552624e-01 -5.570922108217306601e-01 -2.712075686072581426e-01 1.741334623553398853e+00 -1.613055507050861426e+00 -1.032583079764767264e+00 -1.280757533468392717e+00 1.161423122286721954e+00 -1.177148450346168662e+00 -1.131892451004817834e+00 -5.993809652939393606e-01 -9.215414002916521019e-01 -1.640697976060813801e+00 -6.543315633601991532e-01 1.391757224323658004e+00 -2.291285997679833208e+00 7.100816297859336990e-01 -2.353333230652599473e-01 -2.854770305860648838e-01 7.453343664712781536e-01 7.716704048656877202e-01 3.315336646782380825e-01 -1.603850037295380337e+00 -1.446869883519715572e+00 -1.756563733926119086e+00 -1.264220295227074686e+00 -5.652725019757138814e-01 5.030920104288478800e-01 -4.883813208345747503e-01 1.490765302281074733e+00 -1.507495564886557782e+00 -7.057865591481807810e-01 -8.890626093371483130e-01 -1.227682759119612665e+00
-7.250595000882203989e-01 1.381234775773136692e+00 8.243384424244724062e-01 1.506517824993053534e+00 -9.960074781142068678e-01 2.676474698103924466e-01 -7.650526411607608823e-01 -6.665092537323961119e-01 -5.797966255936151669e-02 -5.944584401949726260e-01 -1.941149955313217879e+00 -6.159209274943848456e-02 5.657383345113401463e-01 1.775649758543142720e-01 -9.448268347551187496e-01 -6.721751628678592771e-01 -1.000889599917167194e+00 -7.198746161600380056e-01 1.092147964655012293e+00 -2.223482139271439895e-01 -1.112424296713778078e-02 -1.394943913242356670e+00 -2.043663894552214977e+00 5.164927076014222962e-01 -1.741066450626341355e+00 1.417793976622999941e-01 -1.350803183816831343e-01 1.532249265224679413e-01 5.185175430711274069e-01 -1.351099001290586576e-01 1.414149379561809305e-01 -4.146286463267984113e-01 -1.422322577778523778e+00 1.277458233140618682e-01 -9.695863565712402599e-01 -6.300300114451822253e-01 -5.594349135535925388e-01 9.936822832199870836e-01 1.350033479906559419e+00 3.164815189923460004e-01 -1.652739149511564865e+00 -2.426271761102805957e+00 7.866736891872531112e-01 -1.541969524105071265e+00 -6.640125012541545635e-01 -2.882957297886488135e-01 1.404568592287849249e+00 8.130414483742963716e-01 -9.705325844467317387e-01 -1.071864339555175460e+00 -1.649579353634767376e+00 -5.318092934198789257e-01 1.396282715611685821e-01 -1.820722120090993768e+00 -5.186488210226095630e-01 3.273818514051151651e-01 -1.197087550143846491e+00 6.865797304522306410e-01 7.839559075801398880e-01 1.411695270377485656e+00 -1.852924512890715469e+00 -4.169943856624487299e-01 -9.096909032273056139e-01 -9.851104050949939239e-01 -9.981771780869005406e-01 3.677508168523729304e-01 2.270258023816881521e-01 -1.604278979985314324e+00 -5.592050545286179064e-01 -1.649684759176698323e+00 -4.776658269120977462e-01 4.953385581801842547e-02 -7.893491545784532271e-01 1.410778412003945749e-02 -1.324089200532561295e+00 -1.420688122243659590e+00 -2.213741780843553997e+00 -2.028287554300966817e-03 1.927411039264640191e+00 -5.794158870514725113e-01 -5.635950125853759207e-01 4.990939494098339813e-02 4.133207514334928945e-01 1.288194765097322447e+00 -6.694633083860553890e-01 -6.753506301409554213e-01 3.836849762883672854e-01 -1.511292733188769333e-01 -7.717489603226933281e-02 1.198234778479066343e+00 -1.951000807305299567e+00 -3.530678061763934950e-01 6.947668494394931837e-01 3.360547867058846228e-01 1.709329855734383410e-02 -5.324904693966022728e-01 -2.782337736447432763e-01 -1.501666658491426665e+00 3.930568891006632759e-01 -2.371716810182785962e-01 -1.401881011838595148e+00 -6.859660833232774646e-01 1.566915665235885935e-01 -3.996640949336418419e-02 -1.840973338202100296e+00 -7.860835100327485669e-01 -2.314244930611287998e+00 -9.920035484372906609e-01 -7.922960468416710977e-01 2.564175632227820301e-01 -1.559175533530170021e+00 4.715127359891232994e-01 -1.540169442317967097e-01 -2.113509806211027353e+00 -5.809899938281836151e-01 -6.333371486088371638e-01 -3.685201946098033421e-01 6.717615822920641744e-01 -1.701954258081063986e-01 -1.615280710519957363e+00 2.455214912580728104e+00 9.067744842731286781e-01 -7.674936621046056784e-01 -7.437201687950082407e-01 7.233514652799362121e-01 4.662029690610727806e-01 -5.048547225530803928e-01 -3.524447330308661530e-01 9.242078958804115230e-01 -1.177752846767643025e+00 5.902345847263104628e-02 -1.283549999897076077e+00 -4.629287885831488980e-01 9.128336837657127223e-01 -2.135377413118175471e-01 -2.136995872116769293e-02 -1.497782933850129450e-01 1.445021343256031932e+00 1.441103124916561784e+00 8.380169747426927662e-01
